-0.562213-1.19029-0.4579030.3882690.3392690.243936-0.282385-0.5698320.5232690.5355090.121681-1.82172-0.42260.6437012.050161.290160.4954620.9156350.543635-1.6386-0.77560.3865081.530160.3733991.08257-0.173783-0.8176-0.07189921.099221.487510.358979-1.0702-0.5985480.752989-0.1961830.3419390.4519390.782234-0.248720.5853360.2281610.0935063-1.23077-1.316070.07506190.7586810.2253340.5779890.377235-0.158938-0.1997050.474396-0.0623857-0.02373090.9389520.6260620.756269
0.122826-0.111512-0.2438651.179710.4707060.8401960.5052550.5897110.000705875-0.514744-0.1511740.6635470.4013620.3756460.1547290.1807290.1962240.272794-0.1452060.1843620.4363620.2611150.6387290.598693-0.01273611.09051-0.3916380.3139950.300766-0.2008850.3536280.730445-0.332940.5756650.768646-0.004108810.3578910.8170090.3240410.4234410.3182360.373621-0.2459440.5052650.3344380.1008260.206948-0.401335-0.3854510.2744380.9444940.3294890.777091-0.115294-0.0333980.2184380.482706
-0.143873-1.017660.3342890.2264910.134491-1.518520.130925-1.061240.5044910.327301-0.854497-0.7478390.497279-0.7801120.297531-0.4294690.627415-0.335384-0.2003840.2302790.4032790.2235290.5595310.443967-0.175832-1.188460.7962791.902730.01915411.15753-0.73244-0.245869-0.6818670.5675050.7193570.3154890.694489-0.0989001-0.295014-0.629495-0.4912940.886704-1.54823-0.281014-0.161101-0.819497-0.725320.419505-0.583404-0.413101-0.5553310.083401-0.567512-0.537509-1.5775-0.679101-0.727509
0.7551550.2697290.3238121.384470.9904660.150791-0.6324980.3288920.1974660.1483350.2179890.354273-0.463936-0.1887940.599846-0.0491540.0181633-0.06718320.4248170.3620640.667064-0.3521880.3938460.1839960.403650.488460.209064-0.736426-0.1673410.2798120.1975470.132010.715045-0.355161-0.229579-0.174518-0.0665182-0.638545-0.4623730.2050230.4264920.0464578-0.001769220.8044420.01280130.3519890.5266690.967839-0.0154154-0.734199-0.1779680.7756060.3544310.1834660.462420.00280130.500466
0.988822-0.51792-0.01452940.06169960.1807-0.4738550.5555930.444364-0.05030040.8472910.1485210.3312270.563674-1.55037-0.305298-1.07730.411284-0.3504870.03451320.138674-0.0723260.784077-0.719298-0.3883080.1249210.626798-0.3663260.09433560.746130.3780770.444581.21469-0.0726892-0.6066910.3533891.265490.8004910.1603831.06139-1.031850.2855380.8029130.9693491.389550.3701540.500521-0.383018-0.7896910.1905120.9001540.006502580.7298381.269070.0546996-0.0567087-0.5168460.5527
0.5589240.7241320.7170040.1405510.3595510.2729440.354377-0.1530840.1015510.1907750.578323-0.311037-0.586070.1646540.6011360.2901360.1327830.370331-0.332669-0.219070.90093-0.09152690.2561360.1031620.100710.882350.59893-0.3433640.6027490.826473-0.1542110.8079770.3486390.651580.4029120.373088-0.113912-0.0550208-0.269029-0.3600150.0411280.368466-0.4337180.1415660.403432-0.2896770.5739780.502580.435290.7084320.205714-0.06565060.4448890.6095510.4753840.3464320.123551
-0.290242-1.779570.7457210.3232280.265228-0.4652450.557251-0.3283970.128228-0.598645-0.8131380.00702626-0.0875411-0.313331-0.457291-0.5192910.299176-0.006316590.150683-0.0195411-0.6065410.296219-0.9502910.403298-0.121195-0.8281550.3194590.7356260.382891-0.03378151.515891.15044-0.19207-0.0614951-0.320702-0.1488530.1341470.0915443-0.375277-0.611647-0.4519880.501522-0.5326111.837880.394037-0.600138-1.727340.9905050.1450861.044041.095432.038050.698738-0.1867720.6166141.231040.238228
-0.383293-0.03353260.1151530.0544628-0.05653720.419351-0.6856030.132331-0.0195372-0.886025-0.743715-0.706909-0.903889-0.1068281.597681.225680.2668630.8571730.484173-0.243889-0.5358890.2676210.6636810.03939660.1437070.4569-0.3588891.199130.7068730.365621-1.15649-0.181982-0.585922-0.224904-0.1536160.6573350.4323351.475260.06536640.2113450.809406-0.937654-0.910096-0.5198820.303945-0.0127154-1.592930.2680960.7281791.15495-0.2501511.011980.3464020.9104632.176181.367950.647463
0.324586-0.0371633-0.992371-0.2290910.295909-0.9743470.270306-0.463993-0.154091-0.6261950.4670851.388991.84526-0.855542-0.6628-0.4528-1.26883-0.788549-0.6825490.3292641.182260.00637582-0.4888-1.07380.5104760.5269981.597260.446902-0.4698090.433376-0.7404330.897369-0.210808-0.8360640.2767171.39870.9627050.6903381.21997-1.01509-0.07778370.276393-0.4167891.204-0.4369420.00508524-0.232074-0.625064-1.04381-0.472942-0.323731-0.4988291.873090.0629089-2.82992-0.5979420.190909
-1.576331.063310.018623-0.4602760.172724-1.01032-1.137430.618480.680724-0.825643-0.8815420.5919861.370980.216205-0.5581610.172839-0.228827-0.219727-0.1917271.068981.20198-1.72518-0.383161-0.901695-0.470595-0.7996811.00398-0.1837560.784506-0.820182-2.00424-2.72323-1.818210.4625371.34793-1.33757-1.106570.639002-0.758813-0.3045211.15664-0.3553830.1382720.5742451.3869-1.867541.260281.29454-0.6175260.6389020.4611740.7504180.1997030.1777240.06839570.5899020.0677236
2.05886-1.732540.6844041.1599-0.224099-0.5093921.90937-0.487981-0.3610990.1721110.177609-0.941034-0.884022-0.3312621.557430.8954331.414561.640051.24705-0.121022-0.1970220.05724951.108430.6925860.442084-0.628417-0.5840220.7188821.052820.77925-1.29673-2.03273-1.462550.3813491.54045-2.17056-2.831561.117-0.1254470.3287921.161850.806663-1.09172-1.092891.0845-0.08839140.9692050.7713490.07286960.642501-0.8432170.663665-1.08328-0.03809861.190550.3805010.249901
0.3435761.02884-0.3479650.9513370.6103370.1866720.2502740.0183810.485337-0.435912-0.249610.437252-0.1843860.1847960.4223880.698388-0.236455-0.01615280.331847-0.1753861.009610.05313370.7723880.2274340.04373580.316020.6656140.691956-0.611381-0.3308660.1100560.5356420.2588960.4292060.008441420.5294020.03140230.5085890.01813160.8596430.1705070.4392540.546996-0.368306-0.02471260.24339-0.3862370.2612060.2208760.2092870.9492830.04423920.9740830.3893370.603417-0.3627130.289337
-0.490173-0.1871970.5886370.8718370.6308370.69718-0.1233740.3577570.4648370.3632740.1374750.1358971.122590.747088-0.234860.630140.002953450.2481540.6581540.4175910.5555910.06137320.199140.2906640.1018640.1178830.05659070.28508-0.0358454-0.4016270.03298910.6222080.00297538-0.639336-0.3781380.4770680.854068-0.0231481-0.07182740.217242-0.0591351-0.0559021-0.902183-0.0004046910.6116510.06047470.03796640.290664-0.0789076-0.358349-0.467532-0.363451-0.080930.7848370.3385110.3736510.699837
-0.992277-0.345747-0.0832163-0.695016-0.610016-1.98743-1.229480.4353590.491984-1.70284-0.6286350.414843-0.510208-1.160310.511341-0.1266590.2991061.036310.983307-0.370208-0.501208-0.5922890.1563412.163222.521422.493620.213792-0.134375-1.46843-1.042290.5994760.4028730.4635040.548481-0.86752-0.245753-0.9457531.980440.766503-0.4150040.7436810.607051-0.655774-0.103012-0.095756-0.5426350.583336-0.353519-1.413110.4952440.54347-0.483906-0.9606460.7779840.375760.5072440.143984
-1.93610.233541-0.753289-0.82001-0.60401-1.04012-3.10438-0.640414-0.53101-1.156930.1653540.567733-0.172633-0.682416-0.728463-0.1574630.1800440.533324-0.0916761-0.04163330.4043670.2669840.137537-0.1033150.703965-0.2699910.02536670.224405-0.3537390.1879840.8604320.748756-0.3486910.3976220.5506813.085392.810390.0873380.0973684-0.5060931.06691.808350.3366641.21208-1.21394-0.6016460.658272-0.178378-0.3207-0.916941-0.5622770.4191271.33244-0.19901-2.00709-0.861941-0.10201
-0.7613990.1261380.311081-0.2462750.802725-0.083327-0.5060430.3734790.103725-0.108398-0.679753-0.3549331.315961.1319-0.9146980.142302-0.992659-0.750015-0.8560151.824961.93196-0.5563330.09330230.1833180.3169620.2885642.313960.295246-0.797194-0.319333-0.315541-0.827295-0.31566-0.1738620.350385-0.9290280.165972-1.077670.169587-0.643118-0.01021720.0801475-0.05174320.0898431-0.3253190.109247-0.771638-0.338862-1.453220.414681-0.530062-0.0658160.291090.0717251-1.16291-0.1163190.632725
0.1626680.3720031.1740.15771-0.686290.2224620.6539631.2606-0.53629-0.42470.3140050.2488420.649467-0.1334750.6515730.168573-0.3353990.612306-0.0666938-0.714533-1.056530.03874610.2005731.269611.621311.70814-0.439533-0.913895-1.14573-0.7702540.9767171.662251.874080.0435754-1.059370.136482-0.3255180.02943520.8191340.646832-0.45972-0.7075460.2276440.0798779-0.476270.324005-0.0204608-0.2814250.551936-0.01026960.9503740.5114790.102883-0.003290450.491493-0.60827-0.32029
-0.1888610.4009580.5059330.6877460.6707460.1962610.8533270.6346970.5777460.3547150.6545280.05841250.5339240.203990.3371460.184146-0.02526170.790551-0.03644910.2109240.3269240.02013250.932146-0.3568650.873947-0.1549450.2599240.0960491-0.01249640.163133-0.0646076-0.3256880.2753250.5980870.304420.2647830.01878250.4996810.483658-0.480459-0.5731-0.5631130.5430251.0172-0.3271310.7225280.7002950.2290871.045270.6998690.099894-0.2270570.5057320.1927460.369153-0.206131-0.240254
-0.760756-0.3258080.9512861.191610.8556130.864208-0.3320830.5354190.5616130.996566-0.319107-0.820451.418970.4861170.44139-0.22961-0.0997731-0.306446-0.6494460.5239680.155968-0.305388-0.435610.96296-0.568713-0.6104720.3269681.01019-1.03559-1.108391.16027-0.636158-0.2773810.6728170.364993-0.594966-0.973966-0.1155440.0947953-0.00532934-0.229856-0.1006340.5608460.7549420.687129-0.1171070.1134251.272820.1440910.3551290.6389750.8901690.6618350.6156130.3939980.634129-0.241387
1.02533-0.904174-0.398191-0.817861-0.122861-0.6809290.8169950.0558852-0.2178611.483520.7758550.787279-0.05139440.7639270.249191-1.108810.7100590.242391.06339-0.720394-0.2303940.1357290.0811910.0944739-0.3991950.463958-1.56139-0.339746-0.2034880.216729-0.4358440.525639-0.0898984-0.7134040.432038-0.001801270.03719870.01807811.243541.56732-0.5960730.691465-0.91812-1.02918-0.8122531.040850.646053-1.0554-0.166856-0.3342530.0846273-0.4491190.721677-0.0408606-0.6576460.0787475-0.141861
0.6436930.821601-0.306241-0.6590760.1989240.297260.9495280.2922390.3319240.4806930.6988580.518034-0.8871140.369025-0.4759440.645056-0.1073610.2298040.191804-1.57411-0.909114-0.3369150.440056-1.805-1.42184-0.114449-0.701114-0.7423150.6665380.134085-0.6177381.005810.817786-1.40427-0.143862-0.1803890.1846110.9011380.9251920.939829-0.2411020.0179267-0.8349240.5820950.3549720.715858-0.639329-0.6072670.8652340.4479721.372050.5047340.7429530.1289240.5291781.193970.926924
0.7614041.02897-0.1305370.39634-0.54766-0.526203-0.137474-0.0380916-0.30966-0.0225570.354321.435610.904633-0.214092-1.1474-1.6574-0.21106-0.5601820.03381771.459631.39763-1.2018-1.3234-0.513257-0.95538-0.1844040.693633-0.628568-0.556378-0.975802-0.6107740.863079-0.630515-0.1694530.254855-0.553825-0.3568250.1632910.0327934-0.108274-0.4555760.2710191.254711.51361-0.787587-0.52168-0.0864538-0.3974530.0268892-0.8385870.353123-0.4834450.4359350.21734-1.27829-0.652587-0.0176598
-1.959970.4925410.6878250.853535-0.127465-0.53373-2.24668-0.71051-0.191465-0.2344060.5193030.5978650.937045-0.0425610.0633795-0.7176210.489950.214659-0.4193411.137041.01704-0.3014150.1543790.7673180.2540281.038420.963045-0.2149550.161826-0.151415-0.2756460.7154550.136249-0.545515-0.2537142.396911.717910.6774060.680050.704098-0.186806-0.00160031-0.3183540.2214370.790696-0.3206970.651913-0.3105150.1918310.4366960.319342-0.3536140.166740.2485350.00932157-0.00230390.288535
-0.2666090.4144690.232049-0.728306-0.0383056-0.0309643-0.0422545-0.1600130.284694-0.2416-0.625954-0.3951660.206433-0.427062-0.267494-0.108494-0.356482-0.0708369-0.2848370.1434330.3744330.267451-0.493494-0.00411456-0.603469-0.1442810.614433-0.2852920.285621-0.756549-0.3880710.398762-0.537183-1.02966-0.417123-0.439412-0.8364120.6084690.593352-0.640899-0.375012-0.560067-0.665420.4675940.621823-0.883954-0.863417-0.797657-0.5469020.506823-0.1755960.374111-0.10736-0.2743060.7749760.349823-0.826306
2.35453-1.36113-0.1847140.2546120.283612-3.531980.807206-0.8356850.410612-1.41275-0.9714220.870107-0.105496-1.67532-0.2241690.7018310.07944111.616770.6507670.3965040.1845040.3999660.402831-0.1973191.357010.06137580.05650370.8542980.6755630.2929660.665157-0.200148-0.5442830.3064761.36689-2.54043-1.470431.940330.730136-1.265560.7258020.402937-0.5186871.594170.933999-0.00142231-0.227585-0.692524-0.8996580.869999-0.2306881.158610.6637470.123612-0.03879320.2579990.193612
0.1879420.269060.3665520.5120260.907026-1.19204-1.217531.82440.416026-1.24821-0.1537331.32989-1.21306-1.587310.0306108-0.4893890.3163410.06681540.760815-0.47006-1.38906-0.624630.368611-1.39818-0.69571-1.68915-0.51206-0.3013752.07665-0.30163-1.098150.177878-1.32788-0.1423471.49791-0.254647-0.1876470.3749220.213373-0.5744920.4041271.223891.117791.394521.224450.4902670.0530244-0.1263470.01227041.150451.971231.284860.2067850.06502620.5099590.6634470.429026
1.07489-0.743136-0.633049-0.2641690.360831-0.7701291.23201-1.252660.6728310.3957560.915636-0.3932510.7398950.2562940.6539620.450962-0.3275210.03335890.3653590.6748950.5998951.013940.453962-0.600306-0.5504260.4110150.02589471.82549-0.5043050.853944-0.664746-0.535425-0.117408-0.304970.1832380.5332131.06121-0.02247640.30480.311653-0.49309-0.132108-0.9894740.0301777-0.4233560.7396360.0446014-0.98597-0.462423-0.760356-1.52583-0.5353431.164810.216831-1.585760.429644-0.739169
-0.2722350.764007-0.5734910.1887080.0187077-0.736532-1.18943-0.4445730.215708-0.850482-1.22328-0.2679430.5788470.2042260.322851.15985-0.392580.128618-0.156382-0.06215320.5648470.5677221.17485-0.8078180.104380.168680.9678470.04728120.1282260.446722-0.4477030.4887950.5319230.9377890.2567850.5882540.2762540.34682-0.737081-0.9721561.083991.317861.145381.053860.507622-0.822283-0.8090180.641789-0.0657575-0.5753780.001002221.00228-0.0964197-0.120292-0.02400820.1266220.286708
0.301096-0.0571156-0.105078-0.360133-0.798133-0.7424960.2251510.0761356-0.851133-0.211648-0.316703-0.976267-0.07455230.519281-0.2139210.6900790.0362512-0.5498040.0081965-0.336552-0.394552-1.01710.0950794-0.667998-0.414053-0.0835558-0.0405523-0.2052690.0383680.0238995-0.377955-0.196513-0.364333-0.5518270.3072-0.2091510.140849-0.7844070.147694-0.174523-0.673882-0.521061-0.5347380.0823897-0.2263520.06229740.09651640.528173-0.0267772-0.0953524-0.20309-0.114359-0.683313-0.447133-0.448950.323648-0.504133
2.38047-0.1537650.00223058-0.75017-0.501170.3810122.50187-0.0554699-0.564171.549391.409990.5636110.118813-0.37011-0.885181-1.024180.6942950.262895-0.372105-0.457187-0.192187-0.889978-1.258181.42851-0.09289170.196738-1.30819-0.6637-0.575308-0.09197852.417830.06306290.007859940.3513060.40397-2.27876-3.03776-1.35357-0.3484760.1477850.1619050.4921081.712210.300045-0.9051680.7069881.022870.2043060.337122-0.6711680.232040.611340.520033-0.14917-0.6432490.231832-0.20117
-0.1530450.36581-0.06831460.3322170.2062170.8670950.1344240.4954450.531217-0.6524610.089070.5002530.5807240.04976870.368495-0.5075050.220635-0.2128340.3031660.5797240.6707241.13363-0.4865050.384320.01685151.05738-0.1912760.802772-0.1946290.199630.4427810.569839-0.1762960.5025250.5545130.328110.314110.9907890.506692-0.7740650.8160560.337191-0.147112-0.0267182-0.2637430.168070.7744960.05352460.2743260.7162570.438145-0.5460830.4793520.4442170.4264490.5962570.368217
3.143430.896388-0.5457961.00599-0.0970088-0.394572.078640.767338-0.0190088-0.7161880.44560.970770.816434-0.95039-1.23899-0.679992-0.20605-0.4882630.4127370.3844340.3004340.68326-1.14199-1.41311-0.777327-0.6259110.09843410.3466530.8406890.45426-1.51204-0.686839-1.025090.2058381.07408-1.08252-1.83952-0.0357087-0.289846-0.008652161.152631.709880.7544360.235643-1.38150.63761.56196-0.0491623-0.72118-1.29150.0409403-0.4794071.00824-0.138009-2.66693-1.70650.383991
-0.6011990.722176-1.1301-0.18108-0.22808-0.341524-0.5612180.294977-0.19708-0.817640.131380.40706-0.45008-0.3947031.468880.76688-0.6961991.223820.0158209-0.84808-0.0160802-0.5348591.005880.4502250.774245-0.4236660.0939198-0.994057-0.3883950.114141-0.702334-0.5742250.250513-0.55299-0.319593-0.0980816-0.1640820.624351-0.591091.580121.685030.00929093-0.736671-1.3052-0.557668-0.606621.07827-0.25699-0.354821-0.762668-0.37534-2.0824-0.991819-0.07808041.04725-1.32467-0.70508
0.505421.410490.3508520.231914-0.564086-0.03286090.2143580.1956480.443914-1.07634-0.307275-0.8089810.8018090.1242490.3679580.655958-0.507846-0.215784-0.7737840.8438091.303810.3852180.391958-1.01807-0.175010.9217131.21981-0.6347340.6592641.27422-0.2389220.4248630.3946030.0229756-0.3576880.324371.11237-0.763571-0.420061-0.1555350.8910380.134298-0.413030.0854491-0.974633-0.200275-0.5604550.0009755860.70089-1.023630.1503360.3446030.6931750.306914-0.312004-0.347633-0.255086
-3.04290.2914951.50411-0.995344-0.5243441.47277-2.694440.9106960.1346561.124760.0693029-0.1175190.1991410.677002-1.06828-0.9932790.253201-0.638252-1.266250.2701410.932141-1.77973-0.9372790.8737650.4273111.417880.166141-0.51604-2.34568-1.264731.135091.282212.16265-0.0126653-1.8672.368271.59827-0.436234-0.7326790.39175-0.856119-0.545566-0.0720720.3209060.0542197-0.1836970.649910.1623350.535768-0.03878031.282150.1021080.136209-0.2573440.7144340.701220.501656
0.2756380.6002170.7681750.2205580.3535580.648426-0.6127440.7142540.742558-0.07583830.264544-0.226047-0.0938658-0.6515780.4499880.8139880.3510370.3274190.9544190.3511340.6071340.0776903-0.1620120.2293360.4057190.1881460.2241340.3453040.4037940.618690.6110430.720853-0.291849-0.268289-0.0325929-0.479441-0.2074410.1487220.06184690.6308420.3300930.582796-0.128890.734716-0.409660.06454420.226947-0.1512890.2690040.42334-0.388551-0.5802470.133260.9185580.4626410.381340.726558
0.682998-0.4705530.5974650.4533790.578379-0.0241590.4130840.372730.8313790.3067950.02070910.3474010.605934-0.290407-0.0701078-0.128108-0.05571640.6581980.4191980.8179340.189934-0.373190.02689220.3256060.481520.5901610.7369340.0846488-0.02586810.24681-0.457228-0.1536730.7354090.71354-0.212030.4132380.5542380.343327-0.4341610.8587910.1344540.4663720.575810.1185880.241414-0.275291-0.3656470.656540.266248-0.2305860.6932230.6428720.08229740.617379-0.071257-0.09658650.389379
0.662561.981280.2162660.412083-0.08291740.125347-0.4112571.40991-0.133917-1.34110.4867160.1448350.7920220.830735-0.1049350.621065-0.400369-0.339552-0.8505521.011020.647022-0.3104020.681065-1.13214-0.5223260.9355080.142022-0.7788320.465392-0.613402-2.617-0.1393470.67112-1.0492-0.337038-0.0388780.5071220.8930141.081281.06918-0.0743815-1.03985-0.258834-0.59710.6281970.0647155-0.741264-1.5312-0.6533870.218197-1.54964-1.59647-1.47038-0.07491740.165276-0.205803-0.0499174
-0.5159480.1240520.9178270.5251620.5881620.5212650.03471710.7558781.28416-0.2305140.06982050.4722720.4257080.7039720.4182250.09022450.5748260.281161-0.0658389-0.01329240.2967080.3149120.1172250.48338-0.159285-0.5336350.358708-0.3477160.128131-0.1800880.216361-0.2836540.5846590.580350.07050330.4278540.074854-0.1428471.09181-0.04486680.6696850.1243720.552754-0.00797108-0.2951820.155820.2315940.13135-0.207707-0.235182-0.04542840.4478550.1898490.8141620.8214240.169818-0.216838
0.644289-0.510435-0.287420.001527670.7075280.2554690.880341-0.4484220.2685280.7854831.50843-0.2294220.043775-0.7453220.7928970.2638970.2080131.084960.439961-0.027225-0.0612251.812690.685897-1.38369-1.485740.341438-0.4442251.458950.8670380.9816890.4998961.32202-0.379771-0.518610.1892990.9338170.7238171.486670.8781380.804639-0.996662-0.289871-0.6517680.1598880.258721.01043-1.88092-0.937611.094790.38172-0.4730480.6779020.492319-0.0834723-0.391281.326720.852528
-0.290537-0.172070.300932-0.2107230.3402770.867682-0.04788190.7128450.06527660.4575320.3988760.06878040.6248590.7435220.7758410.7558410.1269140.1752590.4162590.8978590.466859-0.2130640.3708410.2744840.1418280.8352750.523859-0.1435680.4053460.5409360.187738-0.01847060.434434-0.0814290.5018420.1374350.4614350.8090880.494706-0.4012190.4659160.1840110.814234-0.1425050.5717440.3138760.2088560.6235710.8971590.6757440.2459780.76941-0.6256280.780277-0.2281920.0157436-0.168723
3.19264-1.44585-0.3010170.3104420.167442-0.5125673.47718-0.956223-0.05255831.364930.719386-1.27435-1.174070.5130.8882520.7972520.3746230.937081-0.230919-0.802073-0.0570730.6645570.4292521.572151.741610.626816-0.8240731.48767-1.528921.531561.206891.660550.50625-0.766843-1.31981-1.52832-1.951320.43498-0.3557161.25908-0.292384-0.222079-1.1472-0.245639-0.5274791.43739-0.8495560.4551570.02243360.326521-1.45568-1.052020.657747-0.636558-0.72935-0.3114790.476442
0.154649-0.184973-0.04834020.6547530.6817530.0608050.5005550.02239520.3527530.1153920.671485-0.4713860.5626940.3692080.3682330.3232330.257368-0.2495380.2334621.05069-0.0773058-0.339951-0.180767-0.5002140.2398790.3460670.1656940.1943580.587780.2590490.4731990.07148040.4766640.751104-0.7969110.634517-0.1004830.939626-0.199351-0.6333310.546197-0.172987-0.8064380.08908410.8055320.4664850.6936330.471104-0.2764030.3465320.09109420.2644520.8545690.5807530.795314-0.1764680.545753
0.553724-0.1465410.379746-0.1742520.237748-0.3171880.7727220.134716-0.00725248-1.10323-0.123225-1.216580.2021940.1055181.219330.54133-0.046743-0.269741-0.0817412-0.147806-0.358806-0.1306721.302330.1323940.2013950.4238740.264194-0.5939690.1008760.190328-0.3233130.03616650.362168-0.663989-0.492421-2.53988-2.294881.10722-0.2872630.360776-0.330988-1.05299-0.5390220.03197111.73422-1.22123-1.154540.150011-0.1417050.5482190.890197-0.615772-0.851254-0.5032522.194521.60222-0.0862525
0.6998812.0253-0.2480720.2309280.2349280.7529050.1598810.8033330.2749280.042617-0.2633830.2520120.953269-0.234722-0.462085-0.821085-0.687968-1.66797-1.110970.6482690.1772690.272222-1.20008-1.67213-2.40613-0.8741490.235269-0.5374051.91808-0.287778-0.1501970.0917855-0.482522-0.4300870.765449-0.693075-0.308075-0.761570.724015-1.13669-0.5570870.654221.013631.09562-0.0515699-0.119383-0.987693-0.3900870.8486270.379431.318060.882650.5872350.4749280.116750.414430.576928
1.187280.7065380.401655-0.340544-0.8805441.101621.617480.353586-0.1585441.382140.9159450.272061-0.357055-0.129041-0.642805-1.3698-0.00795143-0.979151-1.248150.0219446-0.428055-0.661668-0.587805-0.260047-0.964246-1.57699-0.311055-1.253130.0152508-0.1986681.121751.19980.275668-0.273645-0.666212-0.328047-0.271047-1.171-0.787899-0.566192-0.1478440.9922932.605620.277648-1.8588-0.3290551.373770.4363551.39666-1.03981.103830.1146960.3675930.105456-1.28727-0.921796-0.178544
-0.328195-0.1749930.916922-0.285377-0.238377-0.566561-0.828895-0.7360020.511623-0.185474-1.17477-0.9509050.465363-0.09912910.4762290.3482290.382991-1.11331-0.9533080.00536349-0.06663650.0648932-0.0117707-0.01400840.120692-0.785452-0.2896370.06462470.1297760.5098930.978223-0.431220.3201161.310080.1225070.632323-0.0936766-1.62999-1.83445-0.1244371.441780.230440.1961151.08406-0.492688-0.155773-0.06889020.7390750.400568-0.7796880.1314270.952051-0.257713-0.156377-0.113784-0.4286880.028623
-0.03584240.191729-0.1000810.2591971.1092-0.9021570.9188790.1100570.5761970.617325-0.3273960.7062120.0128946-0.1008540.012264-1.093740.4343270.3116060.6056060.358895-0.1311050.582116-0.753736-0.247695-1.00842-0.00140320.216895-0.2088590.5958791.161120.6428531.78015-0.272706-0.757422-0.4280961.479231.387230.1616220.370619-0.523248-0.6511441.133710.2482890.2684450.7783430.129604-0.0396559-0.714422-0.1063030.3293430.4316321.243771.17705-0.405803-1.608810.3463430.631197
2.62031-1.43581-0.151866-0.693295-0.552295-0.7703552.53574-1.749350.0537052-0.112406-0.669834-1.12886-0.468672-0.7457090.1791330.828133-0.353548-0.119977-0.327977-0.8756720.3153281.222980.4251331.308370.029940.410219-0.9646721.36306-1.352941.143982.134570.2784250.6625730.396403-1.10787-2.27561-1.99761-0.56784-0.293698-1.217690.2609750.507826-0.7368050.3423910.00958834-0.616834-1.557841.01440.288354-0.723412-1.517220.512843-0.112443-0.0152948-0.775909-0.597412-0.694295
0.2597240.3257430.03963170.853392-0.3576080.872237-0.684037-0.7971550.656392-0.4524810.37328-1.43597-0.5286740.2500331.663131.58413-0.307898-0.454138-0.00313806-1.35967-0.2906740.4445121.546130.5862-0.26804-0.308998-0.9276740.03254730.4121511.36151-0.84621-1.050410.3242061.185490.9251860.8739671.00497-0.225514-0.2840970.4328940.5662490.228634-0.4816730.197498-0.306275-0.21872-0.2459830.2674890.1882040.116725-0.398948-0.127401-1.16522-0.3236080.0755444-0.684275-0.339608
0.2451430.7480121.10410.1769530.6399530.261298-0.3687050.707706-0.4230470.0673120.247160.7140270.1742450.6331320.2287750.4247750.5266940.5535420.2705420.3802450.9072450.5292610.5577750.3190660.4659140.0139886-0.03075460.229247-0.3061871.049260.05971810.0776407-0.0198457-0.1446630.2477990.07158420.1095840.4919980.828616-0.1093260.1171850.541671-0.03842380.0722792-0.518850.000160224-0.331916-0.06166320.655166-0.12085-0.0172741-0.5450270.1654390.7019530.757829-0.202850.503953
-0.5377540.2201520.5534670.1869950.6459950.5061590.1587180.1493441.020.17613-0.255342-0.1718770.9823820.823265-0.038599-0.0235990.296192-1.26528-1.532281.172381.10438-0.135926-0.105599-1.39388-1.731350.09308941.095380.4956521.25443-0.0859261-2.74632-1.79134-1.025020.06483151.58601-0.441706-0.5467060.693226-0.04483610.421985-1.10964-1.48997-1.15215-0.226990.1496980.4286580.3969440.177831-0.1241060.607698-0.35945-0.460798-0.5713320.6069950.744918-0.02830230.181995
0.3675850.3165140.3542680.137342-0.1106581.16140.855511-0.7361240.836342-0.6664130.20766-0.3573030.4554431.124941.817720.720718-0.4526370.273436-1.029560.5854430.8064431.6351.58972-1.42612-1.303040.2454260.774443-0.1125351.190990.866001-1.735370.5861710.724889-0.547564-0.8195470.3417140.2497140.2166821.13691-0.241622-0.0304905-0.129208-1.274750.2239640.432608-0.35634-1.57583-0.04556410.384462-0.185392-0.954139-0.837673-0.0173756-0.07265830.903788-0.282392-0.206658
-1.05792-0.5534431.451940.8039240.9999240.4964120.03210410.447278-0.4410760.552630.788608-0.2302251.055530.508717-0.6948730.04212751.188720.89870.16970.9685290.998529-0.8196810.0631275-0.659853-1.56487-0.8333931.340530.1046451.1573-0.551681-1.55797-2.22651-0.9206980.1097421.815620.3781230.0961229-0.5567260.6821820.963417-0.83428-1.88309-1.18071-1.274491.312290.229608-0.21599-0.118258-0.1893050.9212950.09858270.3682280.415115-0.2610761.37581.082290.271924
0.5633030.504121-0.185262-0.53867-0.781671.36919-0.1202890.791527-0.64667-1.13104-1.23545-0.503110.0961774-0.9209640.4950330.235033-0.479594-1.44-1.1-0.653823-0.3188230.542550.706033-0.932724-1.03513-0.548266-0.337823-0.8011970.1631890.34855-0.3090530.3314040.265888-0.584533-1.24756-0.9866080.3943920.8673110.714864-1.10396-0.782941-0.3954250.382181.66531.08372-1.12945-1.64894-0.7205330.8221540.2287180.6638980.1217010.1578460.108331.522361.158720.64133
0.584798-0.1423430.3227290.1153390.0213390.5490070.1891880.5517450.863339-0.179715-0.2861050.07193570.828688-0.2609470.0170130.3420130.285088-0.2273030.5866970.01968770.4936880.277158-0.1239870.08395020.420560.1194390.276688-0.218406-0.345490.5161580.679049-0.430462-0.221607-0.00623755-0.1220540.06516790.364168-0.01562131.030580.249750.1203721.210520.719313-0.4634110.1597690.09989520.3371090.407762-0.2400460.4257690.03008221.068680.3544840.6333390.4695780.1617690.973339
2.81259-0.132111-0.5941250.53050.61250.2441452.916960.2122760.7435-0.5913360.4802880.645408-0.407632-0.684975-0.434284-0.4422840.5203870.4420110.772011-0.420632-0.2446320.333969-0.530284-0.346326-0.9707020.145722-0.387632-0.3207760.8124020.463969-1.015950.6750950.170842-1.26494-0.403343-1.61972-1.529720.5161591.282440.409036-1.125310.100941-0.0889075-0.4125370.7405341.03629-0.167992-1.514940.02912020.3605340.1516260.60885-0.0622482-0.04650040.6234021.089530.1765
0.123375-1.12427-0.321767-0.00480635-0.157806-0.4419830.518415-0.116951-0.3498061.215710.368669-0.6645741.176330.412426-0.512272-0.7782720.9803150.362276-0.571724-0.1526720.718328-1.16630.2007282.864111.396071.832170.8973280.225145-1.69701-1.11631.568660.5887260.7627590.0278159-0.4455650.147675-0.139325-1.18702-0.9646220.385702-0.217224-0.8092560.159639-1.25351-0.7209760.9836690.882751.12082-0.56841-0.892976-1.155340.107807-0.4088390.0661936-0.913353-0.410976-0.650806
0.317652-0.847984-0.2842770.112821-0.770179-0.604818-1.22645-0.137669-0.146179-0.4450281.046070.163806-0.658547-0.5757730.245113-0.02188731.173310.001412231.30341-1.58055-0.9385470.7285430.02811270.135957-0.0569445-0.184789-0.944547-0.51651-0.1122930.3335430.190343-0.154403-0.402833-0.183747-0.4433460.5186470.0636471.555910.5025680.929639-0.142649-0.0812188-0.467807-1.148820.4548120.620070.770877-0.561747-0.6070450.233812-0.0119944-0.02950450.154251-0.303179-0.4516630.1478120.196821
0.3160160.02110130.115341.120630.6286290.4766910.07272650.602590.6606290.3565280.845818-0.185061-0.25598-0.336140.49698-0.04302030.3204890.1387780.4677780.822020.519020.363160.0209797-0.07504960.3562390.2786060.45802-0.4129610.1663120.00315992-0.292038-0.1153820.4914370.799485-0.8058080.3534730.2654730.5621040.7161440.1296370.2397740.5679540.6436260.5039920.2178150.414818-0.3725680.4614850.2128320.164815-0.00955867-0.006519370.4668090.2886290.4024670.809815-0.388371
0.4054320.06127330.3111570.06394120.6389410.448136-0.04335271.006860.00294120.004221730.5480060.1813590.6934030.179965-0.1886340.6033660.5235830.0553678-0.1186320.397403-0.3005970.378040.104366-0.2574010.7023840.05247920.4314030.4580850.308247-0.134960.4794430.2173230.3746490.410478-0.06270820.2870310.4170310.2918240.289463-0.06866690.912263-0.00606365-0.2799330.2006080.773040.515006-0.495770.2304780.776170.673040.522106-0.248809-0.1123860.4359410.02653650.323040.869941
1.84977-1.03882-0.140807-0.1787560.0582444-1.937582.49372-1.18538-0.306756-0.259226-1.05117-0.1354720.408831-1.0835-1.03023-0.5262320.1944370.142488-0.264512-0.153169-0.5211690.248606-1.431231.651672.016720.788411-0.2901690.851629-1.552111.003612.056431.373171.242340.194063-0.811092-2.98578-2.494780.460844-0.405818-1.212010.3511140.5109520.5722721.509260.630792-1.69017-0.788666-0.175937-1.071070.4237920.6680642.165690.456082-1.03576-0.366120.9157920.133244
0.680104-1.32560.0763218-0.6540720.2749280.6644260.723498-0.37068-0.5920722.260461.089060.400434-0.1116531.06037-0.5419-0.93890.5799170.4975230.392523-0.563653-0.4376530.0582718-1.21390.198821-0.156573-0.0392618-0.565653-0.313392-1.2612-1.27473-0.0679502-0.5960330.0627957-0.2699070.451132-0.553686-0.866686-0.2957050.5468350.649892-1.3563-0.6061290.0596566-0.936964-0.5413110.6660631.25449-0.487907-0.3279430.523689-0.3926550.357954-0.0219005-0.287072-0.445425-0.006311270.479928
-0.7672980.125690.5609790.7088970.718897-0.05687820.8827840.1330641.1079-0.14464-0.4717230.1199280.2732980.332814-0.140113-0.05311270.8483740.1752920.135292-0.148702-0.0927020.3500590.0878873-0.773866-0.1809480.259110.4842980.000833315-0.2702950.5470590.5416130.5825890.3714170.967547-0.217520.524260.262260.2533640.74635-0.2438940.936465-0.187363-0.1211150.1057910.1904460.03327750.8446840.1515470.1973070.252446-0.2936680.1451650.1190680.702897-0.301418-0.07655391.2109
-0.071102-0.1531810.1573120.140482-0.669361-0.1408920.02813460.666512-0.9029811.508230.389267-0.4490980.7135380.843105-1.181280.3656720.07108170.6303460.0577188-0.09155810.532883-0.5636520.2127210.3946230.5055440.13061-0.281722-0.168706-0.212344-0.314708-0.909609-1.320990.182089-1.20240.665954-0.1968980.1060510.870519-0.540207-0.9612560.267801-0.342952-0.1740930.877322-0.0984759-1.11547-0.482157-0.868566-1.02145-0.7268210.5634430.122002-0.6925240.7385880.8840860.5187730.3048650.09802830.1096790.1671370.05175580.7717960.666903-0.4622150.0215019
0.557822-0.2940020.08404680.0861506-0.2215680.4315330.08342990.390211-0.675063-0.5878450.991084-0.3696610.5809321.21224-1.68518-0.2489630.4606950.0751769-0.5322720.4913450.2364780.371451-0.8339410.274077-0.0359712-1.456120.0289448-0.161674-0.8947270.7301150.9238190.6631391.075620.42987-0.33994-0.1766050.02111810.1897840.854787-0.229582-0.2598331.62099-0.125665-0.207380.0736824-0.795299-1.25726-1.13286-0.5475420.2674230.0477721-0.0160473-0.04996-0.231495-0.279673-0.6057591.551640.3378030.4045760.8217030.5674930.24579-0.0718279-0.1273650.0587948
0.7976910.4324570.1880250.228509-0.9318430.06293890.0304331.06621-0.682997-0.2625620.671210.218140.6812430.427196-0.0314668-0.538455-0.511850.844704-0.4442750.01256760.861442-1.00404-0.08470340.5352570.8426030.07060770.4927370.163236-0.151782-0.7401160.275211-0.845103-0.538749-0.5440550.655342-0.100753-0.2260350.6997720.4816460.4155950.06785840.009121760.07893490.2914670.315918-0.9261110.027993-0.101131-0.04943350.668525-0.4001550.0173960.398312-0.004353020.84783-0.5459890.241699-1.137730.4991560.437616-0.0747907-0.228395-0.3340930.132190.136497
0.234669-0.7546110.5812750.731943-0.739972-0.751581-0.4455560.576831-0.264820.31350.4056650.352221-0.07524890.574559-1.278340.695778-0.6649730.7049210.0882205-1.06651-0.735304-0.265059-0.583882-0.08873041.497160.4949740.4698880.326624-0.656589-1.04601-0.7539550.6278251.110630.360461-1.563820.0777720.02979810.4117590.206320.5341520.306710.2908620.0733150.828879-0.115995-1.566570.394734-0.720113-0.1037660.3351610.5763650.9005710.976336-0.7828680.371819-0.4154380.0505753-0.5405860.328109-0.05348090.3917580.403414-0.9534060.03009080.461355
-0.351161-0.0430606-0.182862-0.04077410.180290.5121560.1873610.230908-0.149253-1.29625-0.4174970.04460810.02290390.434746-0.229111-0.3402831.03336-0.1196410.0778671-0.8239280.815806-0.626671-0.281280.1205480.03028370.568223-0.849452-0.466451-0.024114-0.3826890.575707-0.3567880.540794-0.4705320.2263350.0499138-0.5859770.10966-0.1534781.005140.203127-0.610024-0.4677480.8593481.080410.205715-0.4161920.403145-0.623884-0.07085780.288286-0.7303510.924493-0.4987791.51905-0.0475904-0.0912479-1.51767-0.0793773-0.728525-0.1736560.250977-0.247225-0.746709-0.168297
0.483819-0.3724540.527065-0.726155-0.0846728-0.255339-0.59463-0.6254370.23298-0.3173640.0392454-0.9729330.47128-0.021472-0.283226-0.0988842-0.0880745-0.979034-0.135003-0.302788-0.6323530.1312070.0282504-0.7990820.06279310.1374090.660485-0.7763340.182924-0.517096-0.423881-0.6310580.5676480.6656880.6717970.5664780.110467-0.8462470.09698210.431865-0.583883-0.01360050.5659260.6163350.4457870.0636649-0.0343699-0.0742533-0.1756370.189764-0.0185183-0.494744-0.828399-0.153414-0.0203476-0.498593-0.391435-0.417423-0.571611-1.13629-0.6420530.1929310.520837-0.5412850.133418
-0.313869-0.129320.361491-0.05935550.3295660.341610.5693190.154235-0.6729190.7158420.479685-0.216599-0.192425-0.437657-0.4110681.361080.3037370.6487030.472117-0.2237670.03366070.569121-0.571077-0.442122-0.848678-0.630332-0.3539370.213998-0.5723030.205557-0.348419-1.00786-0.515745-0.03600320.830268-0.00626604-0.0843393-1.015581.018430.2016950.00537917-0.04997210.389380.3688340.0434772-0.2704351.192750.677893-0.07237140.241482-0.07737661.00262-0.01615030.1945350.2538570.809318-0.5491810.145255-0.3506950.0967976-0.0936240.291010.08711140.284615-0.161387
-0.6942770.659179-0.624545-0.02748151.1740.283462-0.124190.919636-0.1189170.220854-0.7384180.34505-0.120761.174050.762066-1.449530.855259-0.18667-0.7926950.1208720.5287760.1862540.007248130.6381570.2163041.45152-0.3376630.3235320.07146160.0942010.380224-0.5604630.07319240.428142-0.550277-0.0519220.335427-0.886131-0.4855470.8653190.249426-0.6485160.1573780.1715940.1859470.170699-0.526017-0.31924-1.22076-0.219296-0.549891-1.65439-0.09135820.1711610.452896-0.6265681.07607-0.618120.114069-0.273289-0.01120280.544442-0.614433-0.116288-0.634356
-0.8975750.643412-1.120050.462451-0.3122580.078199-1.077310.01831880.4666550.923231-0.636412-0.04517330.2263441.395550.2054950.6519830.5828350.144321-0.3653420.198670.2270380.7262290.462311-0.261111.206410.294865-0.5140850.4892960.372111-0.408993-0.5358820.2644841.542640.125242-0.577964-0.104247-0.4235011.163110.306267-0.9373140.636059-0.9765270.7641640.422402-0.199021-0.777251-0.266411-0.685448-0.9068130.0310017-0.0975186-0.305482-0.562202-0.2376550.484282-0.5152580.005218630.1148580.106019-0.255635-0.572757-0.277833-1.539220.409163-0.532475
-0.50896-0.254723-0.40152-0.6053980.157776-0.795586-0.452014-0.0930647-0.167441-0.131923-0.310021-0.8995440.574858-0.448602-0.224330.8406750.2179040.292137-0.742387-0.02056860.5035491.106540.1597470.456098-0.120742-0.38310.0846226-0.00984977-0.520814-0.157185-0.55185-0.0468235-0.9123920.7168620.327798-0.470097-0.6352731.137530.0733044-0.4781750.005478750.2351030.06356040.3341370.8776470.227853-0.6614920.746806-0.430198-0.8449160.0833970.6826280.5156470.7898080.86364-0.6962670.623151-0.309416-0.323549-0.13780.553958-0.6653760.132248-0.277008-0.427124
-0.9324320.19149-0.7267190.3192820.432158-0.7927050.5201140.0940022-0.5474990.833611-0.2362760.2165030.8527880.480166-0.0599253-1.11464-0.5648490.588343-0.375637-0.2583050.764694-0.1421050.1309290.626797-0.3015220.79253-0.7169080.4337550.8111510.8401220.6765110.0395852-0.545016-0.574108-0.000279028-0.2250540.212149-0.423905-0.00549402-1.02288-0.296244-0.0998176-0.04946850.326352-0.02271760.628977-0.4559690.249250.204542-1.08652-0.0407224-0.117616-1.03403-0.8446121.174070.70537-0.134066-0.3135990.137481-0.2867980.1375651.18998-0.5079750.625994-0.446648
-0.387903-0.47491-1.24038-0.2869560.354417-0.329881-0.389804-0.03682320.03021490.428302-0.916141-0.458713-0.4791530.0469869-0.6335410.08496110.5882360.5229440.527936-0.8956420.37152-0.322636-0.2632050.0611941-0.77962-1.28004-0.5006610.04720750.455063-0.112154-0.3869210.08105790.159705-0.4070181.201460.6537050.8605950.4144340.663332-1.103781.006040.01265430.1090710.3365991.194440.8581310.741071-0.2495781.0018-0.322790.5452520.07003960.777911-0.949181.23065-0.631872-0.4684850.20492-0.706629-0.239185-0.6914340.697976-0.4653390.7461870.66634
-0.2154230.2444880.414891-0.11045-0.5772370.03276150.3504410.06579770.456259-0.5882990.373309-0.8887450.0152649-0.862832-0.0330998-0.33737-0.723022-0.0792368-0.1835720.161680.228098-0.0320698-0.5024310.476686-0.0509421-0.226206-0.1895910.0661162-0.02468070.175714-0.111344-0.6401360.117162-0.7428040.19374-0.11614-0.3218970.0710286-0.404169-0.07848990.115717-0.0557652-0.687998-0.1710110.248828-0.449717-0.1217470.04189170.286531-0.0220539-0.197894-0.404409-0.9129580.1167040.277662-0.335941-0.1922610.768480.341813-0.884692-0.3842860.465702-0.322241-0.1037110.213261
0.6957540.226382-0.5770150.257751-1.08371-0.00513265-0.4624890.691399-1.35152-0.505266-0.339504-0.1273530.576921-0.562081-0.733925-0.1505960.609098-0.1742910.0177249-1.007060.466680.2282880.484196-0.0851199-0.711565-0.511461-0.5565670.5971820.4746280.4643110.18225-0.4159630.6248220.6210250.5939890.1171510.1872670.2181590.0873204-0.821616-0.03189020.255782-0.0291538-0.35330.02286090.55770.0719062-0.539405-0.3661940.162197-0.3603150.4107550.13005-0.30737-0.0379718-0.156147-0.5837150.545139-0.7682560.392779-0.0395287-0.932876-0.374732-0.265396-0.211018
0.472872-0.3115810.8266760.1327760.2074870.177547-0.44235-0.862982-0.163662-0.1215671.76573-0.211620.0609429-1.18119-0.155490.0170872-1.045430.454102-0.4948930.06314440.490011-0.0461322-0.2704580.1008480.907860.389835-0.367699-0.079896-0.0293791-0.1804260.04492960.158656-0.4964220.0772842-2.35534-0.666947-0.115725-0.6718750.365735-0.423057-0.6274390.260099-0.1336690.268781-0.0420895-0.138280.546335-0.05821060.8714330.2603530.01236390.3685930.738460.3639880.245516-0.2454140.0151376-0.816964-0.2529830.02322-0.06326770.61597-0.8555140.223547-0.0272262
-0.3130530.907130.3341140.01575960.8114570.6247850.79275-0.5273610.0946547-0.0562617-0.2532790.632528-0.0317991-0.3472730.3469670.264503-0.898906-0.159178-0.8980080.8246340.875180.477428-0.249912-0.506690.8986721.23589-0.12778-0.637879-0.05490580.3439970.4161690.2412310.0120388-0.282608-0.83078-0.1383180.428982-0.483178-0.6679910.610025-0.355821-0.1554620.278952-0.2996590.8499350.846288-0.1060540.991567-0.767479-0.377833-0.256937-0.0155411-0.695403-0.399481.10416-0.4242350.7030390.01842020.09483970.4540320.7334710.148849-0.5391710.3841440.506484
0.004344590.5357330.1567360.616574-0.118467-0.1323360.306161-0.443902-0.250869-0.5396390.3016880.663610.327406-0.4517250.1974510.05411340.109374-0.0618995-0.08369970.2609750.07741240.7423020.1706810.7490520.3205620.470999-0.2783990.3985290.0524633-0.2825420.1420710.776877-0.319944-0.7985-0.08710290.4549720.728247-0.04408510.3142770.1115950.373423-0.3656850.2765940.0868052-0.01245520.381284-0.4711790.1057870.03342860.3138990.419419-0.0623550.6547740.552837-0.3551450.9670240.8057530.4483350.2171090.553221-0.302326-0.491001-0.226965-0.1392250.832367
-1.193530.45306-0.02980530.2986660.5917050.419887-0.6766320.33721-0.039453-0.205507-0.1913110.1494830.06770780.150777-0.312901-0.8273670.592213-0.152454-0.4357330.07788591.517480.775991-0.0126902-0.2249610.1038720.673685-0.272271-0.02308680.5030990.2856660.3911921.080710.2657070.7413450.594912-0.4306050.94087-0.183201-0.260377-0.171353-0.179397-0.891836-0.2931120.9078640.2915630.665106-0.6351180.974475-0.490915-1.3059-0.684290.462084-0.391909-0.9913370.563784-0.2645011.32026-0.23266-0.10161-0.266055-0.2605410.6149250.0599735-0.1280440.0463548
0.2494340.428065-0.1040370.3612640.5536520.5642780.3824890.1469480.9303220.104449-0.2680310.3307870.536204-0.1323830.7092170.705653-0.4175880.8450820.506057-0.51199-0.625085-0.07571440.713955-0.6005480.2645430.226380.275510.373109-0.08919640.08150550.7647660.524599-0.197072-0.2971610.0778243-0.03517270.4475890.1300260.8876720.660120.0163822-0.3200190.357724-0.3868720.4908310.1302040.06560590.0978257-0.780505-0.5736960.191777-0.6958470.155778-0.0318266-0.492794-0.2831110.06185470.00384641-0.357519-0.09986580.599777-0.395377-0.4128780.433517-0.216995
-0.08724240.057597-0.1322690.6749281.190450.521007-0.272025-0.3346670.595432-0.541067-1.05625-0.01584320.246559-0.3819270.617036-0.161689-0.0635570.02479560.840590.7937560.840664-0.00761452-0.336657-0.01359590.3830270.7973640.22993-0.248521-0.338427-0.0467517-0.09104350.4978540.2866440.08325890.3310450.0853954-0.174504-0.7394570.4227770.9191440.02290540.627043-0.0915601-0.009304310.7483830.078044-0.2518071.485560.470164-0.112319-0.298789-0.6413470.205126-0.9035280.562511-0.614460.0413572-0.3359460.682378-0.480401-0.005736650.64111-0.592787-0.2072650.0606635
0.5977480.58174-0.212757-0.07728390.604628-0.804478-0.465147-0.05239280.174744-0.447906-0.549420.4065150.763505-0.4757630.5703170.6632560.08990920.1263460.2734660.456492-0.2349660.641090.783848-0.769516-0.346035-0.0384262-0.08607630.7079610.0673181-0.08395660.558977-0.5556960.3769310.006698391.547270.532085-0.4962840.377574-0.2802740.1356510.472342-0.2417820.317601-0.441543-0.543781-0.889433-0.595819-0.0793936-1.014070.1245740.3693910.762535-0.0683195-0.369693-0.5459740.139589-1.260580.6084770.1834560.2104040.0727661-0.3915520.7636590.247431-0.259121
-0.0624277-0.435812-0.0684045-0.5313240.0544173-0.411209-0.105491-0.9180450.757854-0.0119663-0.595097-1.22586-0.128196-0.318481-0.01521420.0334471-1.226540.2391430.433058-0.40218-0.385791-0.583781-0.5340730.4669290.773635-0.3138370.04806820.4653670.7080410.4966320.1767890.2672490.130373-0.4054930.281523-0.38092-0.01520920.214092-0.0171142-0.641627-0.8805540.00484490.31091-0.2632230.249289-0.725060.647036-0.343471-0.3341460.0607358-0.866642-0.800444-0.201090.2050840.0381807-0.1918570.313416-0.06536030.373993-0.216974-0.3228680.451684-0.642638-0.4738220.315085
0.6762940.549205-0.5726380.2141490.615732-0.499911-0.4348160.299014-0.631423-0.639274-0.220847-0.2349880.215338-0.06185751.71959-0.940719-1.17880.394399-0.6879840.3373650.9423070.137434-0.102042-0.840711-0.1601310.9401450.2635-0.211701-3.74434e-05-1.615450.514608-0.3096790.62524-0.138944-0.237385-0.274363-0.5574820.358322-0.163216-0.1477390.502009-0.997805-0.339412-0.9263520.2188610.825243-0.6537990.268468-0.6848450.430572-0.39909-0.04209610.49559-0.1889940.25785-0.337855-0.460167-0.4112590.673985-0.04646250.504282-1.97674-0.2463640.1954960.0354604
-0.2681310.891384-0.7506040.931039-0.0328835-0.0739868-0.237317-0.9027250.81109-0.0293174-1.04310.187014-0.117630.2099130.5763730.01438180.360110.08347360.4172550.460884-0.486877-0.06564150.752314-0.167151-0.163614-0.03638260.133807-0.9966220.3713510.335538-0.0296519-0.273094-0.697065-0.6506950.1473630.972446-0.65079-1.08175-0.408537-0.393825-0.2878980.916810.112182-0.352437-0.5775490.343682-0.365838-0.1521110.532394-0.783982-0.226009-0.4466260.09528870.557269-0.786437-0.5216-0.9125630.4246480.026140.679164-0.1298620.6087120.6257580.1254860.448731
0.2348590.7700080.007169260.556857-0.1411730.435866-0.07071610.3697260.2161650.2409960.378160.6782160.0517657-0.0669137-0.512141-0.559361-0.236457-0.09192850.407524-0.116817-0.529196-0.6851390.3007540.05642170.3434030.8887280.5645650.3174520.30639-0.1180650.380611-0.5840220.08367450.168712-0.675132-0.3268030.0273940.0975210.3264550.07784630.457291-0.1135780.0544769-0.117205-0.03107140.077123-0.6311590.3880010.411157-0.4632080.8740490.447466-0.5450070.718380.04182870.325944-0.3509090.06751980.3001312.54646e-060.7016620.2040910.1518170.4452820.677548
1.26249-0.786692-0.8313890.0487995-0.299606-0.4478-0.7635810.041738-0.221941-0.4025381.464730.1523170.110260.628095-1.22131-1.126250.7439350.100680.1834340.7193680.8558210.0182428-1.1844-0.2208850.2774220.8986560.3196050.494317-0.5846190.931417-0.512583-0.2262670.523023-0.0144993-0.197181-0.932746-0.61638-0.248784-0.290420.2090950.06150221.31217-0.4692910.4268260.43589-0.0249006-0.4665030.5283390.588674-0.26168-0.034197-0.53082-1.02822-0.9275810.21236-0.3369270.0927727-0.6388810.5818270.50122-0.4780111.098170.887668-0.5133190.0759477
-1.28991-0.1171890.68295-0.1734140.1398070.316140.660989-0.265998-0.110820.9128320.0040503-0.7565610.308866-1.03532-0.26831-0.374575-0.417032-0.517450.8646420.1914320.1375680.711403-0.9711390.342125-0.5196770.2411230.356011-0.05645530.2270540.6403450.05035380.2720370.249770.306601-0.1866410.5017980.417785-0.3504820.642978-0.09094450.276337-1.03548-0.0286865-0.03117351.098751.043950.986462-0.0740115-0.415516-0.401499-0.1981281.032950.6489380.2195320.576109-0.5102770.663588-0.724906-0.726624-0.6609440.410319-0.195870.6426940.328470.284275
-0.2860180.6658030.371628-0.5647920.528623-0.8767090.724741-0.294515-0.069540.7291650.486453-0.5248-0.315926-0.0213551-0.308689-0.105339-0.993451-0.4090760.2592630.612016-0.2171080.1816820.675829-0.8155490.314495-0.172292-0.203408-0.5714030.109711.89391-0.5567350.963732-0.756361-0.472245-0.172419-0.3160220.126741-0.5216470.64737-0.0640618-0.3028110.4194790.2917650.05934730.315090.6667170.232796-0.0726915-0.557892-0.7188780.3250930.701866-1.284521.27254-1.30799-0.2393070.2440530.3388330.2254950.533610.302778-0.3418430.3182030.3544930.436103
-0.564556-0.4082160.474133-0.445748-0.446636-0.2990720.173877-0.675523-0.2235560.2324850.285241-0.1113520.01184560.216656-0.177319-0.0481437-0.664182-0.170611-0.4516780.377644-0.3960190.221458-0.3861660.2782140.2015-0.151823-0.1762950.654235-0.2622630.1789740.0119517-0.3513920.0917313-0.458656-0.4200970.100461-0.305699-0.144742-0.237992-0.146697-0.2727390.709019-0.3270310.4073570.2401050.122889-0.0633740.369561-0.147018-0.452214-0.1254940.430991-0.0349429-0.202265-0.334435-0.121660.1961840.0400340.0179261-1.08893-0.4465930.1847360.0917151-0.637681-0.506252
0.0480180.515311-0.2786870.04896410.3682610.0239173-0.502937-0.107240.562818-0.763866-0.334673-0.07492780.36452-0.6634970.0509722-0.5601640.77827-0.06347930.835637-0.5387650.673059-0.2156220.151120.04963520.256721-0.0820286-0.1528280.7599490.3968150.3429190.431428-0.200345-0.389752-0.02179340.2167230.2011540.8521920.3397650.304370.5672950.6680740.330173-0.1518070.6194560.0759328-0.03689260.07280190.9656160.06165510.06397680.276108-0.1651580.145884-0.0338456-0.1490390.522387-0.1303410.260074-0.1801570.247518-0.1554530.01673530.1851450.5130180.472402
0.808655-0.380466-0.323247-0.2961420.32241-0.634547-0.4548040.5758840.8753630.936116-0.05282020.5140910.07082-0.8588241.21935-0.368377-0.5650920.438522-0.7768030.7567510.407073-0.6377180.391341-0.3801880.4722290.8982560.507410.6574750.235956-0.661411-0.5276550.116089-0.157742-0.374183-0.952719-0.843781-0.1152510.3009570.560012-0.293699-0.014256-1.04348-0.239877-0.4872340.8493870.4003780.1092140.773119-0.141511-0.574937-0.01748820.1514150.7888470.5734840.77361-0.268859-0.403865-2.05571-0.0539358-0.290663-0.0069828-1.48988-0.167118-0.09610260.474725
0.733292-0.860304-0.2310090.4245166.41108e-050.5840920.386698-0.396648-1.54235-0.1202280.177915-0.0819337-0.2673550.606484-0.632867-0.4535610.8509750.0917049-0.431043-0.644062-0.6388740.387425-0.247027-0.6876250.533612-0.3886740.1140190.2579560.565536-0.07097490.425838-0.664482-0.0887189-1.06150.05635830.2349380.863117-0.8401950.615648-0.7267540.2812090.4939920.7262950.0517628-0.2449640.357570.93685-0.7428980.7257810.742575-0.492555-1.22622-0.7710050.00638545-0.741640.32129-0.6660721.17911-0.9590330.03748250.3286061.476610.2133230.266706-0.454032
0.9701360.1014810.9200040.388218-0.2972230.7018910.922377-0.417275-0.4587030.350083-0.720627-0.244692-0.357259-0.641518-0.678626-0.273775-0.1622790.2687560.6754220.7822480.5381-1.230230.9847070.909756-0.115459-0.152020.679018-0.2975480.341788-1.40894-0.252617-1.23847-0.470189-1.108781.212391.012640.001274840.3364620.7199451.196110.0578994-0.733997-0.07227680.5869610.580823-0.6000290.1162330.131916-0.990706-0.6086340.4957720.721054-0.03707261.710340.38535-0.511912-0.3808450.141752-0.674027-0.000483516-0.422127-1.161850.576457-0.409763-0.543148
-0.4362080.2951920.05279620.578201-0.03102380.5100740.156993-0.2566040.4131580.446540.915927-0.1223790.684875-0.428359-0.0350368-0.355207-0.288756-0.4460080.827277-0.4171630.08010590.0040494-0.0622786-0.136093-0.0377233-0.135660.1268920.628486-0.1754730.05260771.046360.176646-0.0269082-0.1984860.5835310.508146-0.0973746-0.6885180.257076-0.209659-0.4778380.0800370.594909-0.2445750.256947-0.6162450.1797920.02375160.139356-0.688313-0.128540.8641380.5514730.06692450.2461630.360548-0.3448460.373572-0.3681071.026390.0390110.03896960.0266140.7481410.480485
-0.8355090.6717470.113571-0.08258220.36286-0.258399-0.144121-0.673558-0.2093090.7421480.291961-0.420140.250001-0.470777-1.05558-0.0189197-0.0923471-0.524631-0.118617-0.429552-0.765294-0.0299683-0.742282-0.06597950.6525030.753244-0.6313290.0874106-0.08961651.50843-0.1886591.36687-0.1602410.22738-0.808515-0.466544-0.479799-0.191816-0.7237710.119381-0.6688780.456879-0.238694-0.02403020.4457331.4748-0.1555320.1500430.4044670.2593360.663521-0.779655-0.526637-0.389740.238831-0.215795-0.419328-0.0299689-0.08811740.3315850.05042950.993228-0.228097-0.0188904-0.0890053
0.448747-0.2066050.244201-0.4055840.0420665-0.3022990.05541040.641520.1920680.363310.1563521.098410.1787540.00704935-0.006459920.8330030.2274870.02079980.3178890.1357710.9128760.136560.136957-0.6697310.0898272-0.3516620.2870.257078-0.5437420.6873020.0162682-0.324959-0.2473190.738137-0.128091-0.2205620.02108860.07232250.105545-0.3050020.4154270.258911-0.01703880.09809870.3607160.01148130.1262560.6699970.4381530.7577360.56159-0.1656810.08356670.2435130.1022990.2834670.2025220.256822-0.305999-0.321652-0.3109530.6039360.1463690.851383-0.653699
-0.7674180.6210870.215018-0.733589-0.113977-0.7626350.37971-0.6196550.762806-0.450059-0.617310.560583-0.481090.647025-0.8147080.4518340.2881910.386496-0.3564410.8140360.841295-0.2331860.3501460.2706741.33865-0.07305830.754546-0.468883-0.6871620.878716-0.7918810.6444540.1945020.07935940.0465238-0.2432290.654201-0.0181104-0.07740080.276848-0.4227781.43166-0.1082530.4540590.485012-0.205095-0.632690.5120920.581096-1.035470.244809-0.963698-0.109303-0.616348-0.571246-0.3724251.150730.571454-0.4181690.1913870.3373392.135880.06424950.366117-0.885067
1.14423-0.331704-0.413887-0.444068-0.09461170.1018921.000480.219201-0.413991-0.9156250.179645-0.0421894-0.02730820.4265770.209918-1.084750.765360.307551-0.1648260.5627960.551115-1.341880.037232-0.7160280.160120.0155059-0.2569370.0633629-0.508569-0.430846-0.237906-0.364781-0.05031590.58649-0.5305470.6842670.0626313-0.157490.4332981.07664-0.2425331.3489-0.0672962-0.19763-0.632280.3007410.284186-0.6529830.7219060.601414-0.09948-0.983686-0.0491525-1.183980.329761-0.4979130.262074-0.379165-0.286681-0.0767719-0.2277460.2436930.5006910.149167-0.312587
0.250712-0.230362-0.487654-0.002596110.938666-0.0144012-0.0972267-0.142497-0.0997955-0.2320840.2190680.366958-0.03058760.7429660.0284619-0.0284571-0.07920260.3024310.192882-0.580695-0.2995280.100048-0.4661680.5525580.8776790.4311550.2320560.2390150.349716-0.014774-0.03926950.0293063-0.199419-0.07077780.7789230.7020010.315975-0.1795480.430287-0.2785780.7524870.59450.320322-0.387470.9962740.1644350.6360790.161608-0.554141-0.1709110.533925-0.146015-0.1844790.6456340.2698540.392454-0.0598849-0.109407-0.07489320.5858480.31373-0.03819370.0962063-0.1813810.0445956
0.9073690.878484-0.557741-0.136138-0.947988-0.146279-0.310284-0.480139-1.45187-0.290962-0.1708340.07037080.0901502-1.40049-1.64769-0.398157-0.511830.4405940.68808-0.0731659-0.0133989-0.780057-0.236716-0.110826-0.846454-0.0837770.534128-0.4955490.02072831.116370.490043-0.513850.170103-0.3806550.01297280.364864-0.199787-0.6031520.7155650.3300890.5496450.386880.487630.4261230.301381.092950.211346-1.14809-0.09615790.6149620.6851460.582065-0.262090.786445-0.002034270.05196540.24296-0.3027570.00241267-0.3008480.0667071-0.8451860.3392210.875186-0.0579805
-0.1686-0.08761320.408015-0.601147-0.1404690.3450370.1148730.478474-0.0447552-1.10416-0.792512-0.8480540.20089-0.3730290.491022-0.350472-0.331010.3911020.485023-0.175674-0.0248641-0.2692750.361840.145561-1.65432-0.965810.522456-0.7992140.251737-0.239119-0.775038-0.685311-0.6889410.61231.486120.485527-0.09662150.00616538-0.4861980.5873420.164120.115988-0.440149-0.3042110.02214510.470960.465723-0.4804620.287614-0.2986220.45643-0.3853991.34115-0.6914290.5560360.324843-0.6472520.873799-0.06010180.2072560.221480.3079090.8875020.166164-0.316737
-0.0964052-0.8046960.83675-0.6266010.3105140.193622-0.134381-0.599343-0.672883-0.282505-0.141992-0.130723-0.374613-0.01918830.352695-0.508311-0.254986-0.478780.3469670.0236391-0.5057060.49854-0.141901-0.0951103-0.2790860.235408-0.455728-0.2343750.116157-0.466750.186706-0.2621850.885954-0.0105527-0.153048-0.0275644-0.07142190.3632120.0330995-0.325177-0.1500650.0397098-0.2832450.09663380.377689-0.302545-0.262908-0.4628340.5776520.5294990.585595-0.156677-0.992504-0.622834-0.453047-0.090681-0.5812330.181292-0.3327580.0293849-0.00306594-0.4863750.420542-0.5989070.678367
-0.1423050.0413186-0.5590610.4770880.00417813-0.1037-1.13583-0.2304620.170527-0.5172850.459404-0.331920.200918-0.2510580.125704-0.657865-0.342891-0.411079-0.3617871.700750.9299810.09122110.0111245-0.840878-0.869990.6980260.203976-0.3450510.46936-0.2522290.5131170.7147760.0243514-0.3226320.825746-0.594729-0.246293-0.2533370.2157850.7989460.1361960.620604-0.257885-0.915023-0.2296040.190514-0.2393170.259543-1.46771-0.0685210.312821-0.147412-0.6002170.281917-1.12114-0.2609380.815944-0.5405210.606836-0.6289270.51007-0.2772140.657630.6355510.0115706
0.5857620.237938-0.446433-0.7511380.5204380.490870.2534890.3882040.1723350.6074910.245254-0.03616940.34208-0.119779-0.35267-0.1106770.4951070.04589690.7881150.152505-0.156951-0.231768-0.3621370.4282360.3111650.2219030.06107450.2373210.0627866-0.7882350.1630280.550008-0.7567790.02878350.8481790.327860.0828396-0.236119-0.400126-0.144376-0.1221490.07246590.505078-0.05877480.0323638-0.402020.6186290.1802960.7236980.239204-0.3451210.5987810.3475140.4664130.1783860.4629860.2964070.603726-0.1845170.694980.711033-0.636760.0865080.1848690.382835
0.3463940.2994710.08992440.34919-0.2002270.504431-1.105850.3532971.277261.039990.544041-0.115069-0.930696-1.20242-0.9292310.315593-0.321857-0.14451-0.411077-0.8090680.0336381-0.0168828-0.2331690.429152-0.280465-0.3085571.275230.2646610.3765-0.1475640.1602540.876755-0.4887650.0494949-1.35677-0.08830510.4537561.76531-0.2920220.883651-0.6224180.956974-0.3326920.507797-0.0926794-1.132610.00547576-0.7629030.9765990.6696530.2748061.250460.8531730.6116050.1746350.4047630.5443150.424488-0.75416-0.140316-0.3084610.611205-1.160840.2571610.170367
1.443420.06236070.8618330.2452110.111389-0.174336-0.3407040.144162-0.24751-0.1040590.671216-0.4157160.146031-0.7363030.272901-0.3185540.2769210.619019-0.607790.1473330.695309-0.9263750.153285-0.210830.1140290.138085-0.179779-0.639528-0.265643-0.741592-0.0467075-0.4928770.8669-0.71653-0.00298044-0.1954590.4891280.0226216-0.06568540.8608920.6160.450163-0.124708-0.278921-1.26118-0.566971-0.002383110.42102-0.3121120.9546370.506766-0.5173890.311643-0.279705-1.077910.48847-0.9544050.2360920.197185-0.4890910.47528-0.8357290.4613670.1075240.351625
-1.063490.350697-0.170787-0.696812-0.5739830.558380.435072-0.4097410.268167-0.6396070.130903-0.226186-0.702876-0.18823-1.28398-0.213643-0.572475-0.7507030.5432450.04033830.5351770.347305-0.5257950.1426210.013587-0.172741-0.195639-0.222633-0.3401150.04120740.05158390.610799-0.0343020.615153-1.188260.2557620.100693-0.2055130.06377360.413372-0.6183420.721367-0.1091990.003804310.9754390.494082-0.2485290.1044211.03786-0.00413556-0.1317820.6402380.353905-0.0001005810.8937820.4895810.556801-0.477867-0.3944160.178609-0.2670080.2307070.735462-0.0944079-0.566349
-0.4468650.340204-0.5912670.474996-0.4579390.02716680.3725510.1779560.703198-0.9081960.3773470.4842740.0002258030.6083720.8729680.3421160.529038-0.09583750.5107560.542004-0.2429910.543390.1034860.422022-0.326263-0.210464-0.2071540.612424-0.0513005-0.520560.230436-0.3930280.2288230.8637190.1885440.254430.694351-0.6101430.022707-0.3709920.33250.2377310.465951-0.129630.2475760.5217520.3350510.2819250.1702540.1776020.177537-0.338964-0.267745-0.07830660.3349510.788790.765484-0.255719-0.1085740.418554-0.7401990.6676810.36024-0.2695470.12114
-0.9242320.8871840.0574592-0.198024-0.7847930.133192-0.641735-0.1995451.419860.5709310.8994280.8169940.7793831.017170.2332980.4614280.421031-0.0958515-0.1760880.0742691-0.05351970.3872710.470606-0.4353851.04249-0.5464870.460637-0.675950.634485-1.02155-0.478185-0.180441-0.584354-0.7300280.4589250.05427210.9267680.3878370.686135-0.121170.08640820.226727-0.132678-0.161247-0.300841-1.04343-0.7078530.285337-0.988324-0.96907-0.2627610.07211960.7293740.0346235-0.2287740.19366-0.6311451.15564-0.0856132-0.3139620.107068-0.3033680.6944690.538142-0.195747
0.6078740.300075-0.1484730.549669-0.259451-0.131696-1.04155-0.395379-0.231401-1.03619-0.0996916-0.2302310.2223210.7522550.974707-0.9757520.99101-0.340293-0.814437-0.2231450.124772-1.117070.1924160.667772-1.29543-0.0470250.8579380.3984150.562521-0.9943340.252648-0.8357011.21290.1253971.44118-0.5884250.117540.0353858-0.269588-0.00243596-0.196894-0.02998420.2828880.0397066-0.8062470.01995790.3250050.248855-0.3326291.19230.393157-1.032681.14903-0.713453-0.121496-0.242281-0.5754471.115160.4777040.189038-0.639338-0.255230.370622-0.533015-0.285242
-0.003805630.657764-0.854147-0.131589-0.0431772-0.117756-0.982714-0.924636-0.1056460.15442-0.3769870.379448-0.1510460.354230.576989-0.1834550.5041030.26486-0.703440.4378760.283733-0.2029330.3026330.173452-1.17311-0.782477-0.640155-0.112217-0.3814280.2540650.2407881.661251.197040.8688070.568841-0.4879520.05554031.5002-0.0715687-1.384760.305270.128102-0.129046-0.2972730.3491491.09693-0.2533490.0115582-1.335810.1217610.229683-0.5097230.00580159-0.939175-0.2686660.635109-0.6830430.6929850.157880.5837930.444051-1.17488-0.531175-0.5695210.36442
0.3225730.585648-0.7709530.23585-0.428912-0.5853140.0313470.606925-0.2848450.5026860.143254-0.08532310.606989-0.0643365-0.128597-0.991571-0.209056-0.650814-0.169694-0.4961160.277777-1.00707-0.08850350.2049740.4559871.325070.01666240.1160660.41893-1.00312-0.378523-0.4017670.4847430.38338-0.4391410.04975990.1490740.6896940.594930.4645990.7455440.1627370.3950360.8761220.174076-1.15737-0.299397-0.13156-0.5185710.341629-0.002629640.1622290.6111530.7493891.07157-0.603870.786851-0.6740510.461711-0.132908-0.340615-0.971702-0.990130.5124060.248213
-0.256689-0.5670010.180424-0.334764-0.08276510.251116-0.374593-0.04296110.927560.281924-1.100460.7367250.484116-1.004031.290610.5166130.340511-0.129573-0.816309-0.05849580.608110.8707650.240326-0.394064-0.1362080.04284510.6400520.22987-0.257181-0.0550904-0.2321490.245481-0.1619270.542666-0.6836250.2692380.810635-0.234179-0.6150480.386358-0.0884711-0.5172460.121664-0.1000820.5371860.4974320.2829350.5326390.216681-0.306395-0.02591140.0762360.672183-0.670526-0.1837210.4206820.164015-0.998951-0.22710.830998-0.3242870.5851-0.6074-0.0229922-0.427824
-0.299192-0.7243320.314382-0.453211-0.649417-0.2310630.08985050.02269460.107825-1.14629-0.764189-0.399812-0.0311225-1.32237-0.745920.0679936-0.4698730.341268-0.335871-0.03160690.0320829-0.0116099-0.249145-0.247106-0.624749-0.9933720.4840530.230226-0.3789350.0165882-0.725870.517541-0.972277-0.1742550.201786-0.4703510.351953-0.370170.7353620.8896010.2089641.13722-0.0567567-0.2734590.2097221.08579-0.2425380.2426990.9033190.4347860.293046-0.7690911.12594-0.4237790.949270.3031280.7046440.566026-1.305450.559836-0.1602770.2615610.3982130.634934-0.356503
0.0491268-0.1345560.2125470.206087-0.0782993-0.250911-0.646354-0.9226830.151853-0.5345480.358811-0.3177170.161047-0.00978439-0.288069-0.0958325-0.167727-0.110011-0.6064850.181618-0.525754-0.03510140.2859350.573970.230014-0.5780120.452003-0.456810.457378-0.254233-0.4306920.0898404-0.092683-0.510372-0.175728-0.0521529-0.451524-0.4575550.497359-0.2659970.1997010.428655-0.6993570.7062180.439895-0.187963-0.6575350.1347620.166431-0.584713-0.3293990.279509-0.10018-1.068320.159329-0.400872-0.7566870.05006150.0699337-0.0648214-0.0216542-0.200115-0.0337082-0.231341-0.0752953
0.505641-0.2644510.82113-0.2197040.123650.1965870.4446170.596833-0.295462-1.029610.2790160.0989855-0.00576859-0.08865251.46429-0.210579-0.02823010.1255140.642287-0.679187-0.605702-0.512650.187107-0.35415-0.002382281.089790.0526245-0.2915760.008376740.8239720.0788152-0.08939250.0985489-0.936007-0.7001850.380593-0.700325-1.72356-0.1650530.7365440.450027-0.173903-0.292819-0.599496-0.164761.035441.060680.6807650.654551-0.33210.648086-0.3277-1.13328-0.874077-0.3929430.222102-0.8244090.1012120.2034720.167351-0.4613410.7399910.1448770.3595660.504435
-0.3917390.118237-0.05003430.3322650.365369-0.1688310.4118430.183946-0.3152260.4371630.0374225-0.6378350.3317590.0291066-0.5456760.7693470.472209-0.2095910.696497-0.329261-0.5168570.124439-0.1615870.130575-0.170366-0.649324-0.1891240.156261-0.3626410.6196620.497154-0.625136-0.3087180.4225690.877070.428092-0.288158-0.60130.8741530.08663350.1914760.026811-0.4015640.1110330.1172910.1554730.586120.531628-0.213487-0.0159964-0.15467-0.000977143-0.02711710.8778620.6298360.459872-0.465184-0.0670441-0.548383-0.7118060.3749891.09223-0.187618-0.0961290.0750328
0.5648390.1179281.03031-0.0217875-0.2355530.0434083-0.1632780.6342090.1016970.7852961.22269-0.6483820.1439460.02292-0.3791690.169852-0.593291-0.4481090.2963180.352366-0.732596-0.887759-0.004009680.437656-0.0588134-0.0005752011.23912-0.00736710.690171-0.1893-0.5572560.9939410.5011241.03554-1.59601-0.0421966-0.9616290.33618-0.680088-0.343231-0.1799040.843463-0.69520.26394-0.8950540.4437580.9540220.01868250.7745340.717976-0.060704-0.1177480.892356-0.748123-0.5138340.3829330.1488630.258756-0.06750750.11405-0.161227-0.2187790.1964210.761734-0.166768
0.2543290.4854340.5127220.1295120.2226090.876047-0.3496530.4070220.5144060.03227350.0532975-0.3654710.9193020.2802870.211894-0.1140960.3276810.185837-0.3534060.202007-0.204471-0.2638120.547168-0.220225-0.28119-0.245110.310227-0.4641360.271877-0.3883310.577476-0.2765130.1570720.76517-0.173251-0.5984460.4617670.4053360.1000460.3928390.325110.2341481.0848-0.530434-0.3692890.643496-0.5361050.851512-0.313564-0.3509730.257272-0.7372010.558543-0.0576875-0.2521590.1242330.02175520.384840.358062-0.116171-0.109434-0.3149780.6518620.8115770.131704
0.568609-0.564919-0.4485720.18180.0286859-0.759484-0.4293460.471086-1.40618-1.285830.424989-0.20013-0.192686-1.52761-0.7127990.03823790.3633440.2284050.9923570.08367370.0725693-0.728429-0.175952-0.58865-0.5029070.072072-0.262028-0.290515-0.1323511.211170.183897-0.642567-0.314153-0.138960.6446180.3090190.2954110.03088960.1870140.177810.4943490.358457-0.4785140.3750910.6737920.360664-0.393711-0.7893850.6202930.6641010.4679830.515236-0.05596490.539831-0.1582310.138179-0.0198193-0.442633-0.7284390.161954-0.175989-0.4148890.588715-0.1676230.904759
0.626525-0.8159390.8493720.734718-0.5893690.653917-0.1117150.219584-0.211407-0.2000260.1279370.322136-0.0197074-0.1487150.2293070.0115998-0.3989990.492947-0.0943280.3835460.593015-0.0079249-0.573969-0.307842-0.6227140.006203431.1364-1.383220.5944270.2197460.2962850.5354580.8851060.0842947-0.7074730.010172-0.3738330.559960.321243-0.06187340.1443440.09326060.713634-0.88468-0.681281-0.293383-0.45817-0.386405-1.12883-0.1928560.153510.0291061-0.7813761.12973-0.60808-0.2470020.2286860.505310.5984790.4155490.120834-1.039150.418318-0.05020.283478
-0.449827-0.1661490.415421-0.1619480.0508234-0.3884530.01798770.4175010.162245-0.7921910.0110496-0.490159-0.5825710.5236070.2797680.249463-0.281879-0.5695280.4258410.6207671.09109-0.1169440.1998910.1563761.08142-0.5708220.85602-0.159735-0.429898-0.781773-0.451351-0.5731990.13709-0.9277070.8253830.2986220.1499040.9966430.81660.467585-0.2735392.06077-0.119850.506997-0.584892-0.417883-1.146510.8662470.169974-0.390668-0.6137670.09212230.07037790.1656570.1755610.2322421.090280.3049080.60813-0.4311250.1808970.7186790.633374-0.680965-0.131849
0.2556220.02194890.635439-0.363852-0.6464530.384317-1.07802-0.3452560.8128340.214410.4007260.2174430.207152-1.10445-0.2584030.620460.0679122-0.4098320.132851-0.427728-0.745196-0.277120.0136035-0.205368-1.14421-1.066430.813093-0.3022570.06064280.421698-0.07171630.4232620.223804-0.6185570.226927-0.5888340.6512590.0805060.4384950.6431850.034412-0.04685450.221902-0.152789-0.743769-0.2870230.4603830.3700230.7826170.1070340.007042951.123290.5496390.946941-0.375601-0.0288928-0.7926551.11823-0.8178020.0470474-0.186621-1.2487-0.1392570.189483-0.252347
-0.2354540.558566-0.3008610.1811970.3046780.16414-0.1859950.354274-0.4825581.328590.005476180.413411-0.106934-0.899581-0.902559-0.389691-0.2839771.070570.3535280.121190.8999830.4911390.282780.59634-0.1709270.952782-1.12368-0.6737590.255197-0.3148590.7342020.890560.1949380.539799-0.0635795-0.01759130.1580630.630998-0.433823-0.2420020.616249-1.088480.0822719-0.0207360.592221-0.146585-0.8605960.0845158-1.02842-0.517599-0.1262550.442751-0.09012530.8085210.2882750.2601240.293552-0.5600211.035460.526688-0.152226-0.7975890.2205550.8417320.136233
-0.5508330.6506930.4158980.480139-0.30507-0.3105890.08086120.46358-0.196584-0.4053820.5209020.391650.244379-0.2486560.4807860.2914580.511640.1331220.6269960.310840.0438890.262666-0.519158-0.2462670.0423973-0.1792180.6714060.1190430.461469-0.157574-0.1493760.8668550.2712730.992498-0.6848880.00220421-0.404303-0.1603350.539212-0.7075750.2327550.3656410.0471235-0.757637-0.156952-0.181519-0.7256090.2185590.369652-0.199023-0.399054-0.433078-0.1320250.06582940.340783-0.120808-0.1598660.2078280.273583-0.3942321.011190.8538020.3856680.1159010.558523
-0.0386131-0.845517-0.0453073-0.322749-0.9450030.2208380.497677-0.956805-0.03001030.3643870.0300737-0.6623270.513273-0.5782660.1790370.7566380.15405-0.6114260.1319650.125923-0.3276820.276724-0.7526210.4573130.324096-0.2228850.6539990.1922890.01574480.362534-0.483554-0.426133-0.5773210.40985-0.398132-0.408767-0.512782-0.174353-0.391329-0.3690750.565506-0.845966-0.479728-0.2759990.848903-0.153304-0.1888260.6914960.322466-0.514949-0.473377-0.4702180.149476-0.503583-0.685080.533950.4972630.8777420.878977-0.59308-0.0980721-0.6639040.0489827-0.365817-0.102228
0.460360.601532-0.5149610.4703320.05945150.413019-0.02889290.637208-0.03299770.7270780.569339-0.0820412-0.9412-0.1332820.136055-0.265009-0.8326350.8142950.5432080.4647180.65797-0.1474030.4423020.3070270.6648540.6983370.127697-0.685790.406308-0.3289170.234854-0.855756-0.509766-0.4923010.0949167-0.3459870.1776840.18425-0.5787080.427751-0.478635-0.4896710.03228550.309696-0.340767-0.4256690.689704-0.204543-0.1985820.1207330.7963910.3551760.09796350.1012820.114393-1.02435-0.5916670.269468-0.3753080.322240.1726880.952303-0.2968380.487603-0.300053
-0.1497420.238961-0.548463-0.04035840.680117-0.6271390.003557410.368201-0.3011190.4739170.2141690.3127480.005878090.566663-0.04027870.7767880.2204220.0454667-0.3876970.829224-0.0668061-0.102431-0.9762060.0839081-0.164561-0.05297130.867157-0.101275-0.7493690.1909120.1863440.00156933-0.0478128-0.3239470.138058-0.5403350.4302450.8456660.5049750.08979310.510414-0.315576-0.4057470.09832490.3293120.001118960.7732820.013689-0.4163520.389548-0.333597-0.402758-0.2555970.8274850.7695250.345469-0.354108-0.787693-0.3835890.0922988-0.281470.1117530.148223-1.1425-0.389221
-0.715797-0.1615540.4662750.5726790.189133-0.554238-0.5723440.7249210.4505310.2382310.772341-0.377618-0.016337-0.0860871-0.1727250.7690910.152635-0.532564-0.08159670.687764-0.270134-0.4805650.974201-0.2173480.45776-0.446171-0.8088810.1065810.04345470.218181-0.5263690.656545-0.521071-0.46999-0.317969-0.645315-0.1212250.481774-0.381184-0.7349730.05958090.1722060.53977-0.0103239-0.3084580.529217-0.605234-0.1829220.8265060.9658780.62035-0.454758-0.5850480.05229870.2991740.407649-0.380930.298734-0.100485-0.26390.5549960.198618-0.456383-0.802920.0682211
0.09672260.2521470.6410590.760944-0.4407870.0584755-0.1226290.4639910.5433970.1572780.582242-0.2466320.119949-0.5260890.5581060.9880720.5374210.4151110.0876125-0.192705-0.07156940.130059-0.400368-0.4772710.6313620.2034770.3503970.637511-0.6037130.2009850.652732-0.377925-0.769294-0.357140.61334-0.1243530.633406-0.575986-0.463503-0.139952-0.758636-0.0623633-0.683691-0.4405030.787575-0.3313710.637724-0.5570740.270624-0.987675-0.2200810.525356-0.463555-0.365791-0.2036940.930361-0.403692-0.452842-0.00111208-0.825366-0.605464-0.774354-0.426561-0.02087090.267562
0.4503620.239746-0.155393-0.141246-0.107756-0.1657840.1862960.3412980.0136219-0.622514-0.02389990.05395280.04599130.1105860.2070930.526870.436903-0.1708980.2566520.2808930.2094740.660362-0.1915870.209915-0.0587387-0.585634-0.3633020.769879-0.442473-0.6408290.616255-0.1703810.5236910.602418-0.633461-0.766228-0.2085290.1690230.502116-0.477384-0.2477840.857862-0.3549230.104044-0.7797720.252207-0.379759-0.4855060.888814-0.44623-0.6713250.1536590.331569-0.849853-0.4122480.447140.586078-0.7348020.245072-0.3234930.2928270.229632-0.6460840.00320887-0.0220738
-0.291977-0.8172720.0371842-0.5901920.2410340.250073-0.33785-0.530151-0.2652940.997733-0.2651660.7910790.3226060.0184859-0.45409-0.393957-0.780706-0.00743346-0.661274-0.2423780.135870.1494110.661917-0.175244-0.626265-0.6876570.0602167-0.267674-0.3695380.720003-0.0911815-0.8494040.0233766-0.07969160.1588210.3597580.335826-0.9075790.216313-0.4451410.6680830.8978360.713528-0.483620.455271-0.003354620.334308-0.498996-0.0995282-0.00869381-0.0420046-1.01943-0.02362760.299430.221403-0.8581920.513406-0.2956160.267107-0.04439290.4168010.1984950.3237550.2842730.158525
-0.03892510.0817084-0.305641-0.297557-0.361364-0.1702260.09633290.7732490.8031130.4427280.1202650.470878-0.296421-0.3785370.1084430.6528110.01382650.07174640.373461-0.1655360.1178720.02167740.2557680.3449250.174947-0.08407230.6411440.0587189-0.4537680.629575-0.1983420.0802557-0.0384858-0.263751-0.5066260.708629-0.5242050.4859950.0355979-0.08257140.226528-0.03672540.6351660.303673-0.0123639-0.07789790.2384940.923073-0.4419620.522902-0.028846-0.1186430.341696-0.08945370.4241720.3818290.523844-0.1000510.00208938-0.45965-0.1101150.340224-0.5519130.2802630.200842
-0.4444380.445408-0.534176-0.577982-0.182109-0.09012130.294692-0.7784640.180048-0.106947-0.795181-0.156262-0.2091320.1707070.01334850.5425740.806534-0.18576-0.3146140.2279740.1582720.843827-0.100838-0.621074-0.302519-1.084780.344356-0.1087740.219005-0.4654360.197048-0.5299130.3358090.11469-0.153656-0.09533490.2691710.634394-0.4543880.0721520.35707-0.5436690.511070.337812-0.0008477160.0746317-0.4592590.00701452-0.6080070.462851-0.4112790.4291330.4112930.8722410.464724-0.2135150.832709-0.5540160.865729-0.1631440.151030.5057440.282763-0.30806-0.293625
0.432316-0.3403960.6503560.7238850.1389730.608503-0.300492-0.304763-0.1449470.919749-0.2252360.8366770.3555590.305803-0.8885440.014585-0.624301-0.224491-0.02779670.1692480.289594-0.0931266-0.4170990.1853050.304044-0.0674298-0.0395586-0.193562-0.09620110.201571-0.314122-0.208292-0.39664-0.1843520.405298-0.2712840.5473620.0512896-0.1783880.398548-0.4471490.0701466-0.343558-0.02251830.570484-0.8123710.4190960.4084210.0751665-0.383478-0.249225-0.0739399-0.1406990.1623710.0950276-0.6156860.1354060.1266830.6659190.09623870.02722430.276753-0.2704-0.969385-0.755314
0.889125-0.532091-0.216933-0.580370.7619690.1741090.7246030.120503-0.173721-0.04821190.0418067-0.143204-0.3611660.249493-1.038880.0492001-0.862248-0.3663310.08210620.105886-0.130766-0.08646690.2612580.424250.773092-0.0898365-0.4161790.666850.438846-0.0699463-0.5091130.4161160.5585140.635364-0.5548850.59699-0.3187590.0259160.433602-0.97088-0.1077260.319168-0.9527850.575589-0.571826-0.151857-0.1460580.2463430.362529-0.193554-0.928687-0.0124387-0.232947-0.2928510.1977890.3030180.651469-0.0585574-0.121215-0.34914-0.3936830.409479-0.999254-0.9511710.505399
0.151437-0.672170.4283850.5766370.148385-0.5391150.692234-0.616123-0.3146720.149299-0.1270030.0209846-0.317465-0.287909-0.5656440.02145860.749718-0.1534440.5417280.5392260.0711042-0.439625-0.175026-0.07673390.166267-0.164402-0.61229-0.362527-0.1245920.658290.116792-0.127670.2379440.725535-0.2094230.507617-0.0653845-0.05908980.8968020.115489-0.128672-0.697156-0.4455940.744299-0.4851890.380677-0.5091310.2913350.718151-0.188646-0.2223140.193340.785432-0.804754-0.6652030.5657720.002100720.1604940.1316360.1103320.163069-0.386432-0.5616590.2795690.16656
-0.2283480.607798-0.5019580.2644-0.868575-0.202555-0.486509-0.4948760.124915-0.115314-0.5505070.01504180.156589-0.207136-0.1938150.487068-0.418925-0.4800070.485237-0.5657520.1533730.28877-0.765087-0.234097-0.00369882-0.268080.290215-0.01820630.3746860.4007150.51388-0.10586-0.8673531.014850.559693-0.08222120.2037540.107803-0.495669-0.160736-0.4849210.646148-0.5406270.209026-0.0268497-0.197055-0.7275040.2847540.705034-0.03989120.6771380.420174-0.1875560.06830190.53460.149093-0.4198850.7846190.923133-0.4213540.1187760.1282480.3865330.219878-0.360827
0.2149871.06136-0.3718440.392923-0.5576450.482642-0.510857-0.4622930.5429070.172094-0.616948-0.561109-0.02494770.9626620.241439-0.184829-0.1529840.2456160.562288-0.0315046-0.486353-0.844736-0.03713730.264566-0.110817-0.343771-0.7724510.458245-0.0162903-0.0537532-0.129378-0.2481770.500936-0.223966-0.01816540.590533-0.611709-0.449302-0.133369-0.468915-0.02417920.3364490.0745039-0.7982321.02905-0.2896160.340611-0.8499980.7792030.5010.3713720.555546-0.9984330.2186070.0084760.0316114-0.7230620.514190.4696070.4765150.7767160.04121120.271477-0.4105280.556877
-0.307996-0.03711740.03136760.3606270.3128-0.234569-0.173549-0.06939660.402492-0.4004290.3208050.543121-0.0497825-0.1484820.007441050.2916630.2021140.615381-0.21210.3879520.0879375-0.179017-0.08306980.573581.026870.0878105-0.02766440.9041890.1474350.2436740.3320390.413289-0.2714540.09542860.4615140.09442270.9525490.398490.428763-0.7927750.67610.0254155-0.03525840.2185480.556167-0.0483828-0.05737750.160579-0.679999-0.7832790.733797-0.4703810.279346-0.132626-0.4301060.4158330.105872-0.4418280.21144-0.0361321-0.6205770.3477810.07412120.2433880.503837
0.332062-0.1293730.1767370.759975-0.837432-0.01445150.179967-0.850818-0.0382588-0.63097-0.2226050.7362810.326520.5389090.598475-0.742789-0.379735-0.5909940.523292-0.334595-0.03186590.0387166-0.9499150.4571450.3240190.3969840.402835-0.2978910.178896-0.306778-0.8990040.458019-0.6625740.06976290.06155990.499650.1425470.3521290.55709-0.7089240.4073080.0164369-0.799998-0.204188-0.444869-0.246662-0.425225-0.145136-0.2181380.5299120.4356650.0500283-0.1482620.417272-0.26677-0.1689740.4731450.753572-0.3259130.2858-0.345515-0.260182-0.096836-0.702673-0.00933015
-0.00513117-0.6142490.7083280.5944260.291789-0.7432960.924473-0.320835-0.331253-0.032043-0.5755220.351479-0.624378-0.378508-0.822133-0.02840810.217263-0.0677750.7518040.06900030.00950804-0.4783540.09756670.1264480.1543550.5842820.549984-0.46323-0.7073920.5603920.573485-0.3901740.3231250.65268-0.377960.365646-0.3511540.5119710.9898160.237714-0.3141810.06041510.1638220.246386-0.4722060.28124-0.4372340.6643860.106736-0.4492330.4056790.138780.533890.388251-0.118905-0.3324730.2079330.1011940.2579290.22773-0.110124-0.422959-0.0205729-0.0065102-0.605279
0.03061640.212332-0.880195-0.716052-0.6347940.452827-0.22646-0.4418370.3918720.821931-0.4348550.210038-0.279791-0.175017-0.469220.4323720.486746-0.160841-0.6779930.3940720.5635860.394177-0.3531660.385915-0.6678840.1841630.8286960.4669590.3895310.06147460.0580016-0.240453-0.583099-0.2683360.713938-0.716106-0.312501-0.654248-0.297697-0.300907-0.009077920.192128-0.331035-0.03978850.200664-0.6917250.209859-0.1861290.211661-0.07334330.839054-0.4399430.6298770.6353640.263399-0.236386-0.245682-0.1071030.456677-0.220760.277934-0.7700270.596161-0.0336799-0.674562
-0.490916-0.07374060.9284040.4635370.287708-0.027002-0.2531240.6092780.04784290.127524-0.584149-0.003774310.125963-0.08239820.527290.33164-0.6217930.349239-0.262185-0.073849-1.14145-0.6487060.5321420.207982-0.6574740.137507-0.08116560.1315890.779171-0.8127890.48513-0.210733-0.0835083-0.407726-0.457522-0.399281-0.06980060.609123-0.515207-0.04825810.09272810.6540920.6571860.0336385-0.2595650.664129-0.7532470.0735881-0.6107940.36881-0.03628910.6344240.01009880.455589-0.364551-0.460837-0.3148820.236268-0.339193-0.1052310.2340540.748413-0.2066340.0616916-0.468068
-0.234623-0.5951520.336962-0.05504230.2189330.4611310.154590.8644040.784099-0.2378150.606975-0.824389-0.609727-0.07009460.7295940.2289920.8973110.2848770.463329-0.3049520.446813-0.3109920.104372-0.385230.529234-0.1399750.0118684-0.3937790.1298490.2104410.09865170.330032-0.0242147-0.1487270.4081470.03795070.2691450.0744066-0.7539660.585338-0.303173-0.211128-0.585060.03548670.8614320.0435328-0.456590.2311220.940747-0.1639890.8790140.529980.5607010.471178-0.118285-0.5393380.415132-0.145563-0.371848-0.0156310.3972970.06585490.693250.446878-0.699451
0.7399230.175609-0.3070840.4807720.4336850.341599-0.372040.4235421.353770.442095-0.180279-0.1104920.1305720.132031-0.253563-0.370581-0.1720270.04629830.453837-0.105712-0.04203640.9451670.534416-0.372338-0.293319-0.340711-0.482952-0.3896960.6750430.3336750.475751-0.0600907-0.206133-0.0383076-0.3326880.458113-0.0961293-0.927280.121336-0.426112-1.14470.279832-0.266810.305728-0.1694280.0766420.1591470.04702460.47777-0.433324-0.02244240.02362130.81022-1.015630.293954-0.610133-0.0411370.0315779-0.476665-0.888725-0.0764346-0.0241909-0.02565310.8739320.0437893
0.789463-0.2303020.5000730.178636-0.05815540.278888-0.215594-0.1225850.0762418-0.10509-1.03193-0.4749140.710379-0.088415-0.7749920.195483-0.618248-0.206360.704040.6689810.3983380.6689390.3657750.148030.2517770.369679-0.158701-0.0847286-0.6972790.628341-0.2004540.2733181.164740.108672-0.814307-0.0655164-0.6746430.661358-0.605639-0.05477010.472912-0.0640763-0.753740.3287940.5618780.422858-0.1599160.189668-0.2207830.378384-0.5441810.754375-0.6583020.078138-0.02483980.937668-0.5692410.200772-0.4549460.334709-0.3224650.165124-0.153257-0.0637117-0.187393
-0.3817290.9183410.880765-0.613195-0.292801-0.7792460.342527-0.06184120.653699-0.666370.8144420.547989-0.1052540.7883030.3095410.639814-0.4282220.725763-0.3100740.174749-0.5829190.00427428-0.199050.228522-0.2431730.299169-0.6260950.267308-0.2658460.381421-0.7320070.7758560.859498-0.2399050.434683-0.517580.227407-0.3270960.9562830.249884-0.451481-0.00194112-0.0591638-0.09061780.237163-0.9712210.512188-0.226887-0.7116870.06462870.4212840.574699-0.3294710.234832-0.1381350.358273-0.440924-0.3430350.792888-0.594306-0.0712193-0.118008-0.3960710.8805080.194965
-0.389039-0.649816-0.371519-0.6332780.00573303-0.201537-0.0954276-0.0771998-0.327097-0.4433440.1624290.2288810.1162010.03136310.246176-0.0497446-0.249118-0.447104-0.252622-0.533622-0.474304-0.2226920.7128030.2820230.648272-0.1357950.1349270.0173390.919544-0.1489430.4392990.5813510.0483034-0.212940.483941-0.0538537-0.679570.951844-0.7162230.208323-0.104499-0.5242630.564009-0.0773121-0.5443780.03823250.0840628-0.00578114-0.9014830.92160.3873470.283304-0.0921552-0.6328770.1260180.5861170.1147530.604333-0.3601860.3152840.2503-0.70518-0.868829-0.01689570.488875
0.06115840.433833-0.1528920.1332530.0174655-0.6739660.180097-0.06080910.07273180.003498430.1677750.2521480.115587-0.1381540.65552-0.797943-0.4600110.0848333-0.09687340.581663-0.5350970.3204150.294818-0.58407-0.347067-0.2462530.312218-0.0124589-0.156826-0.638933-0.0971406-0.1422030.418379-0.3212180.7618620.361204-0.391926-0.0847333-0.0130423-0.629732-1.00590.207027-0.7679680.397561-0.142038-0.9267570.6726440.647794-0.2515760.685404-0.2122770.3979880.3345850.06103770.099911-0.7815030.50016-0.785661-0.0222411-0.390532-0.4314260.0977678-0.2485940.139638-0.505488
-0.797506-0.148681-0.2601110.346111-1.114050.666385-0.0853589-0.744366-0.162204-0.148256-0.2095060.0829665-0.468535-0.4109540.5250670.355722-0.6788770.5455370.5456090.733522-0.255190.124553-0.7064620.580724-0.138234-0.3451660.689521-0.053670.043311-0.2279970.1653690.694064-0.4790880.05979810.1802060.661203-0.27258-0.7475610.229262-0.172434-0.577288-0.130274-0.01430140.4624130.739207-0.5220290.147259-0.218742-0.561973-0.5897060.0178096-0.357202-0.07971950.575242-0.6036870.0188825-0.306987-0.03495590.365453-0.4760990.180251-0.2159260.322093-0.1412960.777701
0.2771150.2631080.2229380.4700410.206408-0.297284-0.210972-0.1860910.918643-0.7498420.8916391.009060.460340.1676130.136370.09840020.4109220.176064-0.477963-0.0131389-0.5158870.14559-0.589158-0.293087-0.03156030.132964-0.516349-1.0406-0.919992-0.0542948-0.1462580.362811-0.4081120.050470.2724740.2680090.3511810.524613-0.4001680.1678980.5187560.126549-1.0552-0.4869060.944665-0.2199080.501835-0.4649190.299622-0.7989310.8161620.436598-0.405994-0.1558020.299253-0.4340490.0670852-0.0222111-0.259570.1504770.081223-0.218991-0.968415-0.2770540.884092
-0.06905760.239237-0.3314760.3516910.6393150.254389-0.2707020.3245140.404883-0.350825-0.3033920.3987170.1815650.09123790.516785-0.789824-0.333268-0.331742-0.0724479-0.144850.4725870.00730652-0.685654-0.4037280.3366260.188032-0.27031-0.7858870.4569980.8682080.2877431.05445-0.922876-0.187564-0.385615-0.07742690.139396-0.1826460.835050.1151250.0572410.130908-0.994174-0.2098070.3849510.00864373-0.1464640.183157-0.165235-0.165422-0.268464-0.2077110.556883-0.0349957-0.0150799-0.06422230.269420.127004-0.4383530.355448-0.173967-0.2351260.607926-0.9600360.00838943
0.820953-0.2122211.251440.06728350.921884-0.005548880.1492510.07848440.6496610.3572790.5303510.0360244-0.2762820.885199-0.6432470.367796-0.3142210.532366-0.00147165-0.7247760.3231460.3169510.615494-0.7969360.625108-0.404555-0.306764-0.298296-0.723735-0.410235-0.0307833-0.04439260.2384830.009524830.344807-0.7635-0.29144-0.218806-0.2043750.1577540.08060980.0589535-0.9275320.39418-0.6235160.194829-0.647559-0.2111260.01974970.314691-0.8683120.0644028-0.149873-0.495833-0.506025-1.116730.390559-0.443213-0.2255290.180489-0.3056680.2823370.7692790.278223-0.21631
0.2196790.285046-0.08631060.1000090.211816-0.8904650.20896-0.4572840.07276350.5340610.1253310.703683-0.4244050.184812-0.2230810.611307-0.258537-0.2934920.3137-0.26573-0.318966-0.4589820.3005150.1793410.25437-0.959360.855621-0.1624450.382072-0.2066530.137612-0.2915860.2655590.186608-0.6154730.288729-1.16178-0.194877-0.2426790.478251-0.1373-0.523508-0.2258710.02739130.309395-0.7589680.1158770.436068-0.283902-0.599940.05001690.4809590.1754970.4725920.0976519-0.06129850.268966-0.2736570.403285-0.353293-0.257717-0.2193190.5389430.936539-0.202204
-0.4115280.985025-0.0976103-0.1975780.007369460.4495-0.1174880.303614-0.177937-0.398898-0.573535-0.1476120.128314-0.23838-0.02286540.03756730.4768-0.947471-0.4411690.9315990.1967760.136727-0.218154-0.137517-0.02339350.757515-0.07227780.809542-0.8134690.01792940.127387-0.1062810.2581650.233098-0.198373-0.07730090.3786780.317543-0.691199-0.218463-0.4762710.2852280.3513460.8150280.8639960.7232620.2920480.437957-0.5601930.0490307-0.4931960.311319-0.2804540.2087550.361002-0.160709-0.3392240.293583-0.5200410.1657950.2214940.838268-0.0144084-0.363249-0.811906
-0.389233-0.230304-0.04013640.1121280.3598140.6288840.247925-0.43674-0.3835850.701416-0.4570790.0360695-0.06002760.2081850.08379810.2160380.331586-0.277163-0.293290.3261330.243174-0.10328-0.566816-0.5483840.0786981-0.4213240.265253-0.316855-0.06327830.442898-0.01150470.3001150.7463880.621101-0.0644524-0.0722044-0.239352-0.4907470.207222-0.0458943-0.0454679-0.430297-0.531661-0.4001790.140202-0.3763150.4426390.1234810.100252-0.248441-0.1025730.5460790.275737-0.326411-0.02446280.807737-0.00303158-0.233217-0.305690.139507-0.1523440.7231150.6223-0.1387490.135925
0.1872180.3037051.01950.1413820.3049640.0521479-0.02623280.1477490.3389340.299279-0.6173240.147521-0.4121530.07940310.0873584-0.8447170.7162-0.686730.333635-0.102690.3103420.3325960.2850930.08474040.267995-0.358820.940482-0.541623-0.64149-0.0340757-0.13204-0.5282590.04465470.709077-0.822619-0.894708-0.0698460.290036-0.121586-0.3934840.3863630.499882-0.03813670.009467490.486280.5648520.5471190.1758510.277121-0.04294160.1241080.816665-0.426262-0.389007-0.5753370.111927-0.2961250.2100480.725475-0.0479270.6280230.498083-0.283057-0.106678-0.481997
0.1597440.448191-0.743694-0.278737-0.32397-0.4751670.274969-0.227448-0.188116-0.1886340.245126-0.1693060.723230.2585790.137004-0.281788-0.612957-0.02465010.144009-0.1905280.1216180.2967330.554659-0.294594-0.246728-0.04554910.425110.458887-0.09075220.2829510.194475-0.1086890.439290.345060.058573-0.6570520.188056-0.6554010.142223-0.3901610.129361-0.3950580.573764-0.417059-0.122416-0.6290020.21125-0.663452-0.0830073-0.1162280.266526-0.3214240.5251480.455767-0.00313935-0.283302-0.514712-0.214338-0.5741560.5615550.1487490.0788049-0.1605430.3818520.279927
0.7780020.629925-0.0254748-0.4251760.3800050.354811-0.513731-0.5624560.09068190.140832-0.0705680.534132-0.4208250.257017-0.513401-0.062133-0.551890.4709310.1702060.628817-0.0545709-0.8520390.09162070.660549-0.370017-0.05436570.05711280.632579-0.1243660.34783-0.6379850.6191480.2811340.1752230.2022430.4355061.15918-0.7039090.2167820.3476280.05387150.01769650.542847-0.5478440.070636-0.3597360.4269390.1442760.685254-0.961547-0.412166-0.0883864-0.04857030.09567510.0208517-0.6210750.7137630.0552408-0.7808270.4497170.0333180.8064490.280902-0.114690.280551
0.485101-0.8073010.227110.8435840.28384-0.507991-0.1997810.3307880.409654-0.187581-0.5680870.393346-0.524914-0.118026-0.1956740.308984-0.4314380.2605960.0718731-0.3774680.156961-0.06011990.1489250.167264-0.0813634-0.2482140.4933290.304611-0.806871-0.6813750.9651320.04178340.988592-0.448659-0.07623910.0824343-0.96618-0.1639010.1646260.397716-0.107751-0.0733666-0.164078-0.2179160.2657870.1546010.198376-0.6086320.123818-0.417453-0.295660.167978-0.718978-0.565756-0.0194838-0.2474180.0640785-0.0538109-0.7733810.1888480.598107-0.382927-0.6847160.564347-0.276597
-1.026410.27908-0.3682170.487047-0.364502-0.00401624-0.0948163-0.5637860.0242111-0.477241-0.6599020.06056060.4802580.4102380.319193-0.4741290.229313-0.5989990.792812-0.4515580.5831320.597420.632153-0.243899-0.213496-0.169642-0.157564-0.3250350.2907170.3891680.762344-0.504468-0.2672480.5177130.144831-0.507962-0.194292-0.3978940.854778-0.0476186-0.148883-0.665013-0.00824731-0.358180.5260840.2677950.4309860.258517-0.5676670.08568850.4891620.197287-0.167487-0.1675120.563250.104136-0.1685151.061870.1740840.1119670.320076-0.09888370.346630.982346-0.42402
-0.266359-0.7101430.0890817-0.3087220.1594320.1455450.7615310.6274070.4852660.144894-0.1038390.458736-0.288536-0.284537-0.501254-0.3998060.241590.04943060.9032180.104960.4570170.1640730.4507240.568458-0.125949-0.9690310.15729-0.535103-0.0669140.507610.185395-1.04959-0.00973131-0.165438-0.197149-0.2013090.148126-0.7004490.441276-0.4481170.6738350.91086-0.322888-0.179024-0.406964-0.461422-0.69770.845740.6438180.3070290.527332-0.478769-0.342822-0.233728-0.138195-0.132933-0.0679025-0.360830.3668910.475598-0.397617-0.09134620.7101510.01013770.221453
-0.114151-0.0847783-0.2758270.782314-0.266319-0.1286020.01608710.61811-0.0364819-0.07866830.4053990.1780390.1286780.258204-0.533711-0.0462480.6525630.7013121.053250.03100810.746152-0.589356-0.7489740.403783-0.357089-0.02718290.6099680.373376-0.7052781.01117-0.08094990.1211530.149904-0.0453544-0.07062760.4242070.5678620.180493-0.3121230.7198450.5288190.09418890.0487071-0.1324020.4207750.26849-0.2870940.3892650.0487304-0.2457480.00853712-0.2173390.2101180.916469-0.1887060.2051690.007154450.290295-0.198830.2574580.0121933-0.575153-0.4092220.201793-0.572168
-0.9227680.7103360.2848540.06096630.0434129-0.0464793-0.3641710.2466380.625542-0.210801-0.587570.6670170.731346-0.340387-0.1653560.7020180.79169-0.01818270.05417450.6226040.6002910.1021090.01443940.008599860.009698550.195696-0.4645770.707534-0.4024660.600566-0.4634630.100011-0.054734-0.6282310.03883810.05268610.454873-0.4269830.1021260.0683531-0.0350074-0.5304780.0214070.402063-0.166959-0.2610060.226969-0.2528750.08065460.5564310.335309-0.245399-0.2824750.2318590.139270.3128030.111297-0.07290290.5246470.06566210.3108910.1753770.1568210.723928-0.288858
0.7130760.656450.8688570.668330.259803-0.732698-0.652020.3129910.5659150.07896020.05049240.23347-0.0921053-0.362231-0.0800906-0.3956480.446438-0.447682-0.3978430.542181-0.890173-0.438574-0.574962-0.30245-0.04226170.8503520.3600571.00420.1991420.426514-0.903363-0.3514640.138855-0.04305720.3141490.5097760.429028-0.319246-0.157364-0.0472813-0.662652-0.891685-0.0163904-0.246275-0.263422-0.214404-0.0545981-0.007837670.195996-0.43579-0.839757-0.126936-0.7772440.251488-0.516555-0.137315-0.10179-0.609046-0.3823170.065768-0.2686580.416358-0.7928340.433373-0.208852
0.9622780.6754130.598001-0.8613920.3462780.457817-0.3274240.0285036-0.272359-0.001296230.1677930.1778580.350362-0.321345-0.09408010.430741-0.7559370.486722-0.674722-0.6066720.6137990.395814-0.9018710.1490590.543739-0.432602-0.3256310.08600150.324848-0.105574-0.292395-0.6999210.925976-0.900936-0.466822-0.601596-0.158192-0.89605-0.1218670.4076290.357205-0.4112840.3173270.142289-0.114890.174058-0.406672-0.9685980.8233880.00495306-0.1629330.770076-0.186252-0.03510730.444911-0.2821730.123746-0.7746460.2901850.576815-0.1885730.492686-0.6781880.6174440.0743546
-0.3511790.0521972-0.0941139-0.528510.566751-0.0447003-0.5950140.438549-0.611643-0.860176-0.121407-0.38537-0.476584-0.163124-0.2222890.100847-0.0630320.156799-0.253797-0.253567-0.2446880.1119770.7444270.6573570.04345180.153328-0.294653-0.7713150.161068-0.4157090.0278085-0.03050840.700589-0.332191-0.6002640.09331180.2443250.3074770.580071-0.8003980.536753-0.549371-0.2020720.413187-0.3842550.406234-0.139844-0.526143-0.129557-0.04025430.6468990.1641940.791794-0.7709650.446810.184894-0.438670.07506740.558132-0.6552620.5958870.208367-0.154734-0.02557420.258842
-0.2488560.118958-0.1793650.6132471.057330.556097-0.1592970.523452-0.593745-0.5715060.2530570.7597550.32189-0.1441980.0593892-0.5191720.443226-0.292203-0.4361010.492149-0.362893-0.04757260.227819-0.0900707-0.5036180.151740.13568-1.139640.262110.355808-0.1125250.600983-0.217119-0.7518370.215176-0.531858-0.584820.0591025-0.131763-0.03878390.3484-0.0767898-0.1494940.00586231-0.662882-0.289066-0.272649-0.378245-0.604746-0.189221-0.2192960.485769-0.07531850.7127580.5850040.156838-0.358493-0.0634220.3384290.751814-0.803777-0.0101577-0.2058850.713537-0.270311
-0.138877-0.1652590.0888666-0.22136-0.6083520.536837-0.032779-0.4443480.9006950.01044950.163654-0.351050.09438950.79595-0.312095-0.8763270.297029-0.556005-0.3301430.155540.2809590.6031720.4508720.423276-0.356656-0.8113110.2980950.330758-0.1871750.422332-0.059067-0.024866-0.738897-0.5555230.377348-0.2421510.142856-0.894990.763960.1825260.009805970.4917670.07785130.418683-0.182713-0.1571370.0588815-0.0725232-0.579272-0.9536020.888305-0.199372-0.234864-0.4809950.8717430.4189980.365026-0.19199-0.307074-0.467340.63471-0.3908810.792118-0.7770880.656897
0.0315562-0.441011-0.227133-0.6989330.4010940.0536929-0.0724038-0.302938-0.839192-0.173879-0.0300737-0.1600270.3498860.386807-0.073957-0.6001280.2638130.4690260.184725-0.2775520.303111-0.102494-1.113090.718774-0.536935-0.4409340.3311990.573807-0.0600452-0.745912-0.6136370.396597-0.528402-0.07687740.756839-0.5738330.7995010.560549-0.7012890.250820.369134-0.446758-0.206257-0.1754120.02035410.490215-0.06089370.8940430.8917270.305541-0.365748-1.03363-0.0724270.130982-0.6123340.9774330.267624-0.584141-0.321214-0.04161980.1275960.146759-0.3160250.4338970.0338492
-0.0664936-0.8750180.222669-0.04312330.5930050.1885550.1172640.00410618-0.3131590.191535-0.04417750.6097740.0683996-0.0351463-0.4884620.396037-0.8388870.552353-0.657226-0.1185220.5080690.1651720.77190.298895-0.289917-0.08061230.0351088-0.655005-0.329062-0.4005440.326273-0.454336-0.2283120.145973-0.0708485-0.8464250.162546-0.6116420.117429-0.2780130.816137-0.103197-0.2277310.3985650.221308-0.2399950.4598390.1566650.260216-0.3999720.1994120.6621580.8013270.162354-0.280275-0.1730910.20243-0.0762983-0.7593020.655455-0.4901060.422907-0.433666-0.1139510.0924862
-0.295080.115928-0.6764540.422149-0.314841-0.2236530.181680.01610540.4804330.258610.4918870.6710440.7498030.356823-0.377496-0.55304-0.379480.6425340.204109-0.3789840.1801970.809828-0.4826570.110619-0.09450260.370638-0.6755850.621396-0.3744870.208031-0.4606211.2918-0.678778-0.0272567-0.501948-0.568915-0.222171-0.2041750.2668910.516484-0.0440428-0.175747-0.111233-0.509612-0.59538-0.0369305-0.2556770.2936230.1847291.154840.730392-0.102005-0.807936-0.3486360.5626010.5968890.118877-0.4882470.0679088-0.363607-0.2597140.3787910.01350510.0223252-0.547472
0.08364261.060850.189740.2785430.4810720.3065760.4618720.000704357-0.09098270.3079640.009238150.396283-0.7514270.50681-0.210395-0.670261-0.944912-0.808996-0.248622-0.437330.378975-0.463513-0.241378-0.8530640.1114870.687886-0.0704956-0.267673-0.409382-0.0152504-0.7947590.412332-1.032680.5165290.888255-0.07274430.3414920.213026-0.7951630.0364010.574569-0.555629-0.1571690.4052650.590023-0.4324480.197667-0.08806430.119254-0.09832740.260832-0.523413-0.375336-0.7380540.1973220.2862830.4730571.02499-0.327286-0.0845109-0.02798890.1577840.378424-0.1688540.229052
-0.4288630.0261442-0.408272-0.873091-0.030918-0.274135-0.269095-0.231304-0.4129360.3734840.753203-0.05271350.0936692-0.3604930.5195750.230803-0.01929840.3532020.0823193-0.06380510.1398440.04701420.08270810.760054-0.4927390.348523-0.2795560.034779-0.169285-0.03601320.8219970.259747-0.293329-0.2382910.11393-0.1208250.4474330.669621-0.231659-0.2511750.1996730.2964160.418701-0.122679-0.6307780.46967-0.2602270.262355-0.0970071-0.430245-0.180795-0.2530220.3459590.06399470.09218920.4278070.8488850.669390.2305270.9973730.24136-0.624145-0.4709390.3745440.279686
-0.189876-0.289861-0.55629-0.616626-0.364173-0.3180590.0316873-0.1174670.200218-0.1934220.1319620.03501560.896871-0.07546540.3580990.5294330.4607050.4596860.247603-0.328132-0.6568910.351645-0.1797480.0361584-0.0554250.1049550.539328-0.653444-0.303775-0.6154710.415745-0.769447-0.450019-0.168647-0.07188720.01826190.255785-0.0327192-0.3803230.110996-0.08613420.345569-0.310233-0.437486-0.0360756-0.2168140.280742-0.351143-0.903976-0.382616-0.247169-0.699652-0.3187320.4529340.03463620.573319-0.8813230.429978-0.389031-0.4470490.350872-0.641879-0.596838-0.229057-0.765501
1.168690.712660.120563-0.292742-0.217977-0.2941430.358759-0.794068-0.3287950.44471-0.330875-0.518262-0.02207920.138243-0.2409160.411494-0.0653001-0.0779274-0.568355-0.467359-0.5594610.631856-0.282760.564236-0.709245-0.09228040.1742490.9004070.791343-0.0811931-0.3306150.6603320.262089-0.2244760.0578759-0.256101-0.143885-0.462905-0.6260490.101463-0.169777-0.0731436-0.3121680.4796310.03956070.277072-0.5087510.04255230.19059-0.0003818850.2638290.455252-0.329279-0.267880.375992-0.340653-0.1806480.1731420.05248240.280468-0.1522920.9377690.7096080.0826260.616945
0.795113-0.446855-0.6806880.05559-0.5709770.3526170.232754-0.205741-0.464013-0.677674-0.6172460.0912384-0.339677-0.6803581.12351-0.9775320.0268889-1.002130.406707-0.1972740.359692-0.150693-0.0554545-0.4131210.7050320.597772-0.232462-0.07549230.3068090.308295-0.214280.144931-0.00421463-0.327780.4384750.3407230.564550.1651340.06847991.01844-0.142565-0.198697-0.34694-0.176692-0.3642320.933598-0.0286931-0.618024-0.2134420.0876607-1.0276-0.0556172-0.424699-0.3075360.1948420.558289-0.1036320.1290010.3694620.5852120.573058-0.1828010.2613160.213040.505459
-0.109982-0.335170.533426-0.129110.134951-0.775376-0.5761490.301310.5961240.107895-0.07729250.466843-0.549811-0.8202760.4161220.4203850.06094330.615819-0.2098510.4305560.1428270.1284090.2142560.4592440.0125534-0.344884-1.075090.01790020.6971720.0149345-0.4872840.000193682-0.430544-0.4074990.143532-0.6539120.5194280.705350.60019-1.268940.5540640.374857-0.560248-0.685779-0.03670030.2828690.4649680.0148777-0.06540730.7380910.239-0.7943140.416857-0.453925-0.203981-0.374284-0.03085630.09742810.236683-0.4338060.08977780.315083-0.0170049-1.022620.336995
-0.1006780.312279-0.241144-0.7176770.448504-0.121279-0.0623690.0131320.1021270.0643364-0.3359290.336975-0.8370650.5577990.1703430.4911740.7274010.1114280.891675-0.273553-0.04349410.2281750.230968-0.53103-0.2483720.4930480.5380380.06113540.08648360.08059560.0744943-0.2574490.0178248-0.290591-0.196789-0.224245-0.4829050.2260440.6103940.43152-0.1057030.1792390.47643-0.236942-0.148617-0.191303-0.003472620.397811-0.4351560.4626690.7547690.1641960.07498960.05843630.154506-0.416347-0.0823318-0.5594070.908849-0.223742-0.106005-0.696459-0.6883230.5189850.549767
-0.1839410.0147198-0.254557-0.4441120.218042-0.4675190.0689589-0.0730191-0.231029-0.05980080.7729370.4278530.01874350.3618990.466535-0.1826690.146581-0.934184-0.3375460.02928580.568098-0.01632880.1183670.2920230.0556450.107705-0.160756-0.2151790.0834807-0.721264-0.3556850.846920.147514-0.2674050.0179824-0.344262-0.000856238-0.77388-0.9342020.5469540.141999-0.0513066-0.407744-0.267242-0.3079090.228524-0.1630590.0348999-0.627391-0.1846770.170433-0.8046560.02520990.6339190.2675620.121323-0.631199-0.340944-0.4243930.104282-0.241774-0.04619680.728630.227949-0.820574
-0.189120.218408-0.0201046-0.2463410.780717-0.0816035-0.168604-0.5076590.954893-0.414101-0.4652150.584833-0.2811770.493832-0.636972-1.07174-0.254442-0.04037850.120289-0.1771840.0887080.528455-0.2028040.271997-0.112132-0.16143-0.731753-0.587676-0.25737-0.5440830.114266-0.03339660.7137050.201612-0.6803750.31716-0.354124-0.21481-0.208044-0.4002450.205587-0.05764560.2490070.0151054-0.388978-0.0217528-0.4106720.4382550.3972760.8113660.0920113-0.657996-0.0223597-0.673747-0.06155350.104446-0.15488-0.416297-0.8512920.1706350.42943-0.5566490.272064-0.3010130.569524
0.2851380.2812370.278314-0.281965-0.124498-0.4109190.1306140.121501-0.35694-1.140680.5577460.0995220.7565030.249119-0.08228760.149423-0.408622-0.49175-0.0598044-0.5298850.0193902-0.455071-0.08168690.7779010.05451550.8364160.4734460.636190.3552080.1436240.199292-0.153633-0.4702550.03534640.33873-0.129678-1.20814-0.1569580.2541340.547656-0.239088-0.1903650.4243270.745726-1.03096-0.0119375-0.1900410.109790.182832-0.4828790.2732760.0574585-0.319592-0.7662690.1819381.203210.08281990.1964070.2040710.640309-0.1275-0.301052-0.1870850.70112-0.557492
0.2317220.758418-0.1033380.0922724-0.219133-0.239922-0.451631-0.1328670.0236659-0.243916-0.581402-0.2600410.7448060.031798-0.4106280.3484220.667358-0.4896480.4259210.00170504-0.2148850.3053790.02524560.5022030.498678-0.560641-0.39547-0.9300250.314870.257708-0.558352-0.548747-0.184780.04231560.0800064-0.1419890.3617360.242421-0.6373550.762071-0.0654602-0.5010260.644256-0.0813891-0.22021-0.2631080.0330227-0.9740710.8585040.2484031.02275-0.5179020.2372210.620738-0.127105-0.20156-0.8681210.194290.1532530.179171-0.5447890.5675780.734567-0.570930.0843421
0.6096290.493021-0.160045-0.0200487-0.4131560.174461-0.2032040.0235930.518829-0.332718-0.1849830.02765920.02656890.23357-0.445644-0.1061110.8001680.4331750.458207-0.1148950.596175-0.614615-0.4064670.0671954-0.0550897-0.673909-0.0305186-0.0429407-0.241287-0.582501-0.3244280.235648-0.1215430.138561-0.0203442-0.3545150.404678-0.6618-0.177806-0.903068-0.552990.3180620.5014950.592705-0.00253019-0.585161-0.4968330.1835680.7065180.5344230.785539-0.245302-0.03403470.52379-0.312286-0.03442560.0685846-0.4819160.396228-0.7546060.5192520.3517820.3758010.0141059-0.210998
